{"learner":{"attributes":{"scikit_learn":"{\"_estimator_type\": \"regressor\"}"},"feature_names":["single","married, no kids","not married, no kids","married, with kids","not married, with kids","single parent","other","total"],"feature_types":["int","int","int","int","int","int","int","int"],"gradient_booster":{"model":{"gbtree_model_param":{"num_parallel_tree":"1","num_trees":"100"},"iteration_indptr":[0,1,2,3,4,5,6,7,8,9,10,11,12,13,14,15,16,17,18,19,20,21,22,23,24,25,26,27,28,29,30,31,32,33,34,35,36,37,38,39,40,41,42,43,44,45,46,47,48,49,50,51,52,53,54,55,56,57,58,59,60,61,62,63,64,65,66,67,68,69,70,71,72,73,74,75,76,77,78,79,80,81,82,83,84,85,86,87,88,89,90,91,92,93,94,95,96,97,98,99,100],"tree_info":[0,0,0,0,0,0,0,0,0,0,0,0,0,0,0,0,0,0,0,0,0,0,0,0,0,0,0,0,0,0,0,0,0,0,0,0,0,0,0,0,0,0,0,0,0,0,0,0,0,0,0,0,0,0,0,0,0,0,0,0,0,0,0,0,0,0,0,0,0,0,0,0,0,0,0,0,0,0,0,0,0,0,0,0,0,0,0,0,0,0,0,0,0,0,0,0,0,0,0,0],"trees":[{"base_weights":[-7.956642E-3,8.962076E4,-7.734395E4,4.4828074E4,3.947687E5,-4.7255105E4,-1.7141845E5,2.9289512E5,1.4611744E4,-4.9616883E4,5.011359E5,-7.450414E4,5.576236E4,-1.7639353E5,-3.398766E2,1.1864031E4,3.3961012E5,-2.0783945E5,5.324147E4,-1.818837E4,-2.4875767E3,1.9522448E5,1.3160653E5,-1.4104122E5,-5.5649086E4,1.1086576E5,-8.579856E3,-5.771568E4,-8.722615E4,9.775523E3,1.1103105E5,-2.2934572E5,1.3987224E4,6.910231E4,-1.356313E5,4.5644363E4,7.416174E3,5.578674E3,-1.5094302E5,-2.7098021E4,-1.0402216E5,1.5026673E5,-1.5353133E4,-4.0306008E4,2.9863963E4,-2.8784113E4,-5.235127E3,-4.001919E4,-8.538972E4,-2.6273393E4,2.631828E4,-6.372727E3,-4.534671E4,-4.7602348E4,-1.781827E4,-1.5303148E4,6.2778066E3,-3.4702484E4,-9.583643E3,2.2716877E4,5.620264E4,-1.727617E4,1.6702375E4,4.003125E1,-1.6952543E4,1.5232731E4,2.0142352E3],"categories":[],"categories_nodes":[],"categories_segments":[],"categories_sizes":[],"default_left":[0,0,0,0,0,0,0,0,0,0,0,0,0,0,0,0,0,0,0,0,0,0,0,0,0,0,0,0,0,0,0,0,0,0,0,0,0,0,0,0,0,0,0,0,0,0,0,0,0,0,0,0,0,0,0,0,0,0,0,0,0,0,0,0,0,0,0],"id":0,"left_children":[1,3,5,7,9,11,13,15,17,19,21,23,25,27,-1,-1,29,31,33,-1,-1,-1,35,37,39,41,43,-1,45,-1,-1,47,-1,49,51,-1,-1,-1,53,55,57,59,61,63,65,-1,-1,-1,-1,-1,-1,-1,-1,-1,-1,-1,-1,-1,-1,-1,-1,-1,-1,-1,-1,-1,-1],"loss_changes":[1.8854016E12,1.7045211E12,4.0516623E11,8.277404E11,7.811535E11,3.1855267E11,2.945155E10,1.2859159E11,8.7038847E11,1.3173975E9,6.3307724E11,1.0380699E11,8.60426E10,3.1701991E10,0E0,0E0,8.1562436E10,9.278141E10,2.6700109E11,0E0,0E0,0E0,7.216726E9,3.2840024E10,9.523952E10,6.6958E10,1.5839792E10,0E0,2.5852273E9,0E0,0E0,3.629613E10,0E0,2.4114017E11,9.219826E9,0E0,0E0,0E0,3.3161544E9,5.389263E10,1.8141938E10,1.3451313E10,1.5205309E10,4.5940716E9,2.5637166E9,0E0,0E0,0E0,0E0,0E0,0E0,0E0,0E0,0E0,0E0,0E0,0E0,0E0,0E0,0E0,0E0,0E0,0E0,0E0,0E0,0E0,0E0],"parents":[2147483647,0,0,1,1,2,2,3,3,4,4,5,5,6,6,7,7,8,8,9,9,10,10,11,11,12,12,13,13,16,16,17,17,18,18,22,22,23,23,24,24,25,25,26,26,28,28,31,31,33,33,34,34,38,38,39,39,40,40,41,41,42,42,43,43,44,44],"right_children":[2,4,6,8,10,12,14,16,18,20,22,24,26,28,-1,-1,30,32,34,-1,-1,-1,36,38,40,42,44,-1,46,-1,-1,48,-1,50,52,-1,-1,-1,54,56,58,60,62,64,66,-1,-1,-1,-1,-1,-1,-1,-1,-1,-1,-1,-1,-1,-1,-1,-1,-1,-1,-1,-1,-1,-1],"split_conditions":[8.3E1,1.28E2,2.01E2,8.3E1,2.03E2,9.9E1,1.85E2,6E0,1.3E1,1.96E2,1.39E2,8.5E1,7.27E2,3.14E2,-3.398766E2,1.1864031E4,4E0,1.7E1,9.15E2,-1.818837E4,-2.4875767E3,1.9522448E5,7.13E2,9E1,1.38E2,1.66E2,3.6E1,-5.771568E4,5E1,9.775523E3,1.1103105E5,1.8E2,1.3987224E4,3.6E1,9.47E2,4.5644363E4,7.416174E3,5.578674E3,2.5E2,6.6E1,3.63E2,7E0,3.91E2,8.57E2,4.19E2,-2.8784113E4,-5.235127E3,-4.001919E4,-8.538972E4,-2.6273393E4,2.631828E4,-6.372727E3,-4.534671E4,-4.7602348E4,-1.781827E4,-1.5303148E4,6.2778066E3,-3.4702484E4,-9.583643E3,2.2716877E4,5.620264E4,-1.727617E4,1.6702375E4,4.003125E1,-1.6952543E4,1.5232731E4,2.0142352E3],"split_indices":[5,3,5,0,0,4,4,3,1,0,2,2,0,2,0,0,4,4,0,0,0,0,0,5,5,1,6,0,6,0,0,0,0,2,0,0,0,0,3,4,2,6,0,0,2,0,0,0,0,0,0,0,0,0,0,0,0,0,0,0,0,0,0,0,0,0,0],"split_type":[0,0,0,0,0,0,0,0,0,0,0,0,0,0,0,0,0,0,0,0,0,0,0,0,0,0,0,0,0,0,0,0,0,0,0,0,0,0,0,0,0,0,0,0,0,0,0,0,0,0,0,0,0,0,0,0,0,0,0,0,0,0,0,0,0,0,0],"sum_hessian":[2.7E2,1.25E2,1.45E2,1.1E2,1.5E1,1.11E2,3.4E1,1.1E1,9.9E1,3E0,1.2E1,8.8E1,2.3E1,3.3E1,1E0,2E0,9E0,1.4E1,8.5E1,2E0,1E0,8E0,4E0,1.8E1,7E1,1.2E1,1.1E1,2.7E1,6E0,1E0,8E0,1.3E1,1E0,7.9E1,6E0,3E0,1E0,1E0,1.7E1,4.5E1,2.5E1,9E0,3E0,6E0,5E0,5E0,1E0,6E0,7E0,8E0,7.1E1,1E0,5E0,1.5E1,2E0,3E1,1.5E1,2.1E1,4E0,4E0,5E0,2E0,1E0,2E0,4E0,2E0,3E0],"tree_param":{"num_deleted":"0","num_feature":"8","num_nodes":"67","size_leaf_vector":"1"}},{"base_weights":[2.6064334E2,6.598883E4,-5.399994E4,2.9591312E4,2.9119738E5,-3.459509E4,-1.2981935E5,2.1608248E5,5.971672E3,6.0015312E3,3.7848828E5,-5.4042566E4,3.779357E4,-1.4678306E5,-7.392813E4,1.11289836E5,1.4800916E5,-1.5291572E5,3.4963613E4,2.8441633E4,-3.9900805E4,4.7721538E5,3.7524555E4,-1.0187843E5,-4.153706E4,1.0159766E5,3.7918855E3,-9.618924E3,-4.5215734E4,-2.8889532E2,-8.292841E4,1.8476041E4,5.8607887E4,-1.6949977E5,1.1889141E4,6.0982277E4,-3.443132E4,-1.4550694E4,-2.1144424E3,3.9747406E4,1.5112334E5,4.7418706E3,-1.0929459E5,-2.2322588E4,-8.567874E4,1.1695533E5,-3.1895532E3,-6.111832E4,2.6703252E4,-2.7161209E4,-4.449858E3,-2.9728541E4,-6.297491E4,-2.8166702E3,4.0959125E4,-2.7883613E4,1.5279447E4,-1.6904342E4,-3.6119223E4,-1.0920584E4,2.5921924E3,-3.521545E4,-9.816712E3,1.7264828E4,4.8592164E4,1.6414689E3,-2.3740105E4,1.6052582E4,-5.3865957E3],"categories":[],"categories_nodes":[],"categories_segments":[],"categories_sizes":[],"default_left":[0,0,0,0,0,0,0,0,0,0,0,0,0,0,0,0,0,0,0,0,0,0,0,0,0,0,0,0,0,0,0,0,0,0,0,0,0,0,0,0,0,0,0,0,0,0,0,0,0,0,0,0,0,0,0,0,0,0,0,0,0,0,0,0,0,0,0,0,0],"id":1,"left_children":[1,3,5,7,9,11,13,15,17,19,21,23,25,27,29,-1,31,33,35,-1,37,39,-1,41,43,45,47,-1,-1,-1,49,-1,-1,51,-1,53,55,-1,-1,-1,-1,-1,57,59,61,63,-1,65,67,-1,-1,-1,-1,-1,-1,-1,-1,-1,-1,-1,-1,-1,-1,-1,-1,-1,-1,-1,-1],"loss_changes":[9.700713E11,9.99618E11,2.147273E11,4.7002907E11,4.2094363E11,1.709757E11,1.7592287E10,7.161492E10,4.475661E11,2.4164348E10,2.65544E11,5.259834E10,5.6020357E10,5.101388E9,5.830496E9,0E0,2.8889793E10,5.4615278E10,1.501559E11,0E0,7.8847846E8,1.5565193E10,0E0,1.8310152E10,6.3395684E10,1.6755712E10,2.8401324E10,0E0,0E0,0E0,2.8021596E9,0E0,0E0,1.903552E10,0E0,3.2026644E11,1.196171E11,0E0,0E0,0E0,0E0,0E0,3.7973197E9,2.4291367E10,3.4776777E10,1.2073435E10,0E0,6.431189E9,1.7720005E10,0E0,0E0,0E0,0E0,0E0,0E0,0E0,0E0,0E0,0E0,0E0,0E0,0E0,0E0,0E0,0E0,0E0,0E0,0E0,0E0],"parents":[2147483647,0,0,1,1,2,2,3,3,4,4,5,5,6,6,7,7,8,8,9,9,10,10,11,11,12,12,13,13,14,14,16,16,17,17,18,18,20,20,21,21,23,23,24,24,25,25,26,26,30,30,33,33,35,35,36,36,42,42,43,43,44,44,45,45,47,47,48,48],"right_children":[2,4,6,8,10,12,14,16,18,20,22,24,26,28,30,-1,32,34,36,-1,38,40,-1,42,44,46,48,-1,-1,-1,50,-1,-1,52,-1,54,56,-1,-1,-1,-1,-1,58,60,62,64,-1,66,68,-1,-1,-1,-1,-1,-1,-1,-1,-1,-1,-1,-1,-1,-1,-1,-1,-1,-1,-1,-1],"split_conditions":[8.1E1,1.19E2,2.15E2,8.3E1,2.03E2,9.9E1,1.14E2,1.5E1,1.3E1,6.2E1,1.39E2,8.5E1,1.225E3,5.25E2,7.82E2,1.11289836E5,2.7E1,1.7E1,5.4E1,2.8441633E4,1.96E2,3.5E1,3.7524555E4,9E1,2E2,1.49E2,1.5E1,-9.618924E3,-4.5215734E4,-2.8889532E2,3.33E2,1.8476041E4,5.8607887E4,1.8E2,1.1889141E4,4.1E1,4.5E1,-1.4550694E4,-2.1144424E3,3.9747406E4,1.5112334E5,4.7418706E3,8E0,6.6E1,1.71E2,7E0,-3.1895532E3,1.44E2,4.71E2,-2.7161209E4,-4.449858E3,-2.9728541E4,-6.297491E4,-2.8166702E3,4.0959125E4,-2.7883613E4,1.5279447E4,-1.6904342E4,-3.6119223E4,-1.0920584E4,2.5921924E3,-3.521545E4,-9.816712E3,1.7264828E4,4.8592164E4,1.6414689E3,-2.3740105E4,1.6052582E4,-5.3865957E3],"split_indices":[5,3,5,0,0,4,4,0,1,1,2,2,7,0,0,0,3,4,5,0,0,5,0,5,3,1,6,0,0,0,2,0,0,0,0,3,4,0,0,0,0,0,6,4,1,6,0,1,2,0,0,0,0,0,0,0,0,0,0,0,0,0,0,0,0,0,0,0,0],"split_type":[0,0,0,0,0,0,0,0,0,0,0,0,0,0,0,0,0,0,0,0,0,0,0,0,0,0,0,0,0,0,0,0,0,0,0,0,0,0,0,0,0,0,0,0,0,0,0,0,0,0,0,0,0,0,0,0,0,0,0,0,0,0,0,0,0,0,0,0,0],"sum_hessian":[2.7E2,1.22E2,1.48E2,1.06E2,1.6E1,1.19E2,2.9E1,1.1E1,9.5E1,4E0,1.2E1,9.4E1,2.5E1,2.1E1,8E0,2E0,9E0,1.4E1,8.1E1,1E0,3E0,8E0,4E0,1.8E1,7.6E1,8E0,1.7E1,1E0,2E1,1E0,7E0,4E0,5E0,1.3E1,1E0,5.9E1,2.2E1,2E0,1E0,1E0,7E0,1E0,1.7E1,5.4E1,2.2E1,7E0,1E0,4E0,1.3E1,6E0,1E0,6E0,7E0,3.1E1,2.8E1,1.3E1,9E0,4E0,1.3E1,3.7E1,1.7E1,1.3E1,9E0,4E0,3E0,1E0,3E0,8E0,5E0],"tree_param":{"num_deleted":"0","num_feature":"8","num_nodes":"69","size_leaf_vector":"1"}},{"base_weights":[1.053769E3,4.922689E4,-3.8720375E4,2.1957818E4,2.1796592E5,-2.4636623E4,-9.376471E4,2.0731562E5,6.909616E3,6.5563687E3,2.825107E5,-3.9279613E4,2.7255135E4,-3.8050605E4,-7.088762E4,1.0691045E5,1.3511267E5,-6.733263E4,3.818226E4,2.4175389E4,-3.2096852E4,1.065776E5,2.8518664E4,-1.8509654E4,-5.7976312E4,6.0569363E4,-8.005888E3,-7.453238E4,-2.4555939E2,5.537789E3,4.5443508E4,-2.1095953E4,-1.4527817E5,5.9900438E4,-6.3321934E4,-1.1640557E4,-1.7972766E3,-9.315289E4,-4.984346E3,-8.252724E4,-3.4915285E4,7.805652E4,-2.9569053E4,-2.9454188E4,1.7650152E4,-2.3747496E4,-7.0423813E3,2.2705841E2,-2.604173E4,-5.1815945E4,-4.358169E3,2.7615969E4,-7.48523E3,-3.2153576E4,1.7121781E3,-3.1852355E4,-2.2534736E3,-4.6934443E3,1.4252137E4,-1.2005902E4,-2.9586924E4,-5.4541777E3,-1.6295582E4,3.3903503E3,2.7083244E4,6.747656E2,-1.398084E4,2.7828375E2,-1.8020367E4,-4.441458E3,7.6580396E3],"categories":[],"categories_nodes":[],"categories_segments":[],"categories_sizes":[],"default_left":[0,0,0,0,0,0,0,0,0,0,0,0,0,0,0,0,0,0,0,0,0,0,0,0,0,0,0,0,0,0,0,0,0,0,0,0,0,0,0,0,0,0,0,0,0,0,0,0,0,0,0,0,0,0,0,0,0,0,0,0,0,0,0,0,0,0,0,0,0,0,0],"id":2,"left_children":[1,3,5,7,9,11,13,15,17,19,21,23,25,-1,27,-1,29,31,33,-1,35,-1,-1,37,39,41,43,45,-1,-1,-1,47,49,51,53,-1,-1,55,57,59,61,63,65,67,69,-1,-1,-1,-1,-1,-1,-1,-1,-1,-1,-1,-1,-1,-1,-1,-1,-1,-1,-1,-1,-1,-1,-1,-1,-1,-1],"loss_changes":[5.2115417E11,5.6118084E11,1.1319935E11,2.970228E11,2.3011918E11,9.225263E10,1.370574E10,3.7946425E10,2.3474607E11,1.6893665E10,1.4350267E11,3.542986E10,3.220164E10,0E0,5.046706E9,0E0,1.056759E10,1.0505351E11,1.6031151E11,0E0,4.677028E8,0E0,0E0,4.597604E10,2.4860852E10,2.4375767E10,8.223769E9,2.6293944E9,0E0,0E0,0E0,2.878459E10,3.6959093E10,1.6326074E11,3.996776E10,0E0,0E0,7.0087844E9,2.3126583E10,1.1789631E10,7.779588E9,8.769528E9,1.7307732E9,7.4965146E9,2.1673764E9,0E0,0E0,0E0,0E0,0E0,0E0,0E0,0E0,0E0,0E0,0E0,0E0,0E0,0E0,0E0,0E0,0E0,0E0,0E0,0E0,0E0,0E0,0E0,0E0,0E0,0E0],"parents":[2147483647,0,0,1,1,2,2,3,3,4,4,5,5,6,6,7,7,8,8,9,9,10,10,11,11,12,12,14,14,16,16,17,17,18,18,20,20,23,23,24,24,25,25,26,26,27,27,31,31,32,32,33,33,34,34,37,37,38,38,39,39,40,40,41,41,42,42,43,43,44,44],"right_children":[2,4,6,8,10,12,14,16,18,20,22,24,26,-1,28,-1,30,32,34,-1,36,-1,-1,38,40,42,44,46,-1,-1,-1,48,50,52,54,-1,-1,56,58,60,62,64,66,68,70,-1,-1,-1,-1,-1,-1,-1,-1,-1,-1,-1,-1,-1,-1,-1,-1,-1,-1,-1,-1,-1,-1,-1,-1,-1,-1],"split_conditions":[8.1E1,1.19E2,2.15E2,5E1,2.03E2,9.8E1,1.34E2,1.4E1,2.4E1,6.2E1,1.39E2,1.17E2,7.27E2,-3.8050605E4,1.85E2,1.0691045E5,4E0,2.27E2,2.1E2,2.4175389E4,1.96E2,1.065776E5,2.8518664E4,5.6E1,1.59E2,3.12E2,2.343E3,5E1,-2.4555939E2,5.537789E3,4.5443508E4,1.7E1,7.9E1,5.4E1,8E1,-1.1640557E4,-1.7972766E3,7.2E1,7.1E1,5.1E2,1.66E2,8.99E2,3.31E2,1.028E3,1.26E2,-2.3747496E4,-7.0423813E3,2.2705841E2,-2.604173E4,-5.1815945E4,-4.358169E3,2.7615969E4,-7.48523E3,-3.2153576E4,1.7121781E3,-3.1852355E4,-2.2534736E3,-4.6934443E3,1.4252137E4,-1.2005902E4,-2.9586924E4,-5.4541777E3,-1.6295582E4,3.3903503E3,2.7083244E4,6.747656E2,-1.398084E4,2.7828375E2,-1.8020367E4,-4.441458E3,7.6580396E3],"split_indices":[5,3,5,0,0,4,1,0,1,1,2,5,0,0,4,0,4,0,2,0,0,0,0,1,2,3,7,6,0,0,0,3,2,5,1,0,0,3,4,0,3,7,0,0,1,0,0,0,0,0,0,0,0,0,0,0,0,0,0,0,0,0,0,0,0,0,0,0,0,0,0],"split_type":[0,0,0,0,0,0,0,0,0,0,0,0,0,0,0,0,0,0,0,0,0,0,0,0,0,0,0,0,0,0,0,0,0,0,0,0,0,0,0,0,0,0,0,0,0,0,0,0,0,0,0,0,0,0,0,0,0,0,0,0,0,0,0,0,0,0,0,0,0,0,0],"sum_hessian":[2.7E2,1.22E2,1.48E2,1.06E2,1.6E1,1.19E2,2.9E1,7E0,9.9E1,4E0,1.2E1,9.3E1,2.6E1,1E1,1.9E1,1E0,6E0,2.9E1,7E1,1E0,3E0,8E0,4E0,4.5E1,4.8E1,1.3E1,1.3E1,1.8E1,1E0,1E0,5E0,1.9E1,1E1,5.8E1,1.2E1,2E0,1E0,6E0,3.9E1,2.2E1,2.6E1,1.1E1,2E0,7E0,6E0,1.6E1,2E0,1.5E1,4E0,8E0,2E0,4.2E1,1.6E1,7E0,5E0,5E0,1E0,3.3E1,6E0,7E0,1.5E1,1.5E1,1.1E1,2E0,9E0,1E0,1E0,4E0,3E0,1E0,5E0],"tree_param":{"num_deleted":"0","num_feature":"8","num_nodes":"71","size_leaf_vector":"1"}},{"base_weights":[9.483068E2,2.933983E4,-3.556305E4,-3.4517516E4,5.2249664E4,-2.43762E4,-6.7938164E4,-4.51959E4,-1.7890625E4,1.3073249E5,1.9630121E4,-3.4160992E4,2.6825166E4,-2.892488E4,-5.114201E4,4.1904445E4,-5.202564E4,1.6534322E5,-2.1442107E4,-4.3779402E4,5.2145613E4,-5.9649562E4,-2.2672137E4,5.4258152E4,-3.9609648E3,-5.362954E4,-2.08725E2,6.080554E4,-4.7668082E4,-1.2072013E5,-3.2250734E4,1.8844475E5,-8.22839E4,-7.548575E4,4.5422965E4,-9.8356055E4,-2.7638562E4,1.4739752E5,3.237577E4,-3.9079168E4,-7.246685E4,-6.248152E3,-5.0280504E4,6.762279E3,6.107374E4,-1.160681E4,1.40633955E4,-5.996365E4,-8.656804E3,1.7960079E3,2.9731986E4,4.707122E3,-2.615776E4,-7.7404785E3,-4.1399812E4,-1.6439608E3,-3.344021E4,2.943663E4,8.83442E4,-3.1167217E4,-5.8605376E3,-4.9580156E3,-2.5191664E4,-3.2923766E4,-6.211041E3,1.062672E4,-1.1660648E4,-9.233778E3,6.0810664E4,-5.609911E3,1.8071805E4,-1.9154532E3,-1.2513036E4,-2.588587E4,-9.929582E3,-3.9202227E3,1.4960382E4,-2.274349E4,-6.749831E3,1.9907244E4,5.19826E3,6.6939517E3,-4.8723126E2,-6.613666E3,-1.9230418E4],"categories":[],"categories_nodes":[],"categories_segments":[],"categories_sizes":[],"default_left":[0,0,0,0,0,0,0,0,0,0,0,0,0,0,0,0,0,0,0,0,0,0,0,0,0,0,0,0,0,0,0,0,0,0,0,0,0,0,0,0,0,0,0,0,0,0,0,0,0,0,0,0,0,0,0,0,0,0,0,0,0,0,0,0,0,0,0,0,0,0,0,0,0,0,0,0,0,0,0,0,0,0,0,0,0],"id":3,"left_children":[1,3,5,7,9,11,13,-1,15,17,19,21,23,-1,25,27,29,31,33,35,37,39,41,43,45,47,-1,49,51,53,55,57,59,61,-1,63,65,67,69,71,73,75,77,-1,79,-1,81,83,-1,-1,-1,-1,-1,-1,-1,-1,-1,-1,-1,-1,-1,-1,-1,-1,-1,-1,-1,-1,-1,-1,-1,-1,-1,-1,-1,-1,-1,-1,-1,-1,-1,-1,-1,-1,-1],"loss_changes":[2.8196553E11,2.2563658E11,4.1442836E10,7.6474565E10,2.867221E11,4.6005907E10,9.418736E9,0E0,7.7701005E10,1.7735215E11,1.6928804E11,2.0903035E10,1.2883246E10,0E0,2.5978962E9,2.6600747E10,2.8708942E10,1.699612E11,7.6820144E10,2.1947142E10,9.691613E10,3.2321618E9,2.4171571E10,3.527127E8,5.551762E9,1.4080573E9,0E0,2.4602128E10,8.880714E9,4.639998E9,4.180313E10,2.1054102E11,2.037887E9,1.6143319E9,0E0,3.034579E9,1.7665223E10,9.492513E10,6.6591146E10,6.798766E8,4.2166313E9,1.4045094E10,1.2479922E10,0E0,2.370478E8,0E0,8.1274906E8,9.4028186E8,0E0,0E0,0E0,0E0,0E0,0E0,0E0,0E0,0E0,0E0,0E0,0E0,0E0,0E0,0E0,0E0,0E0,0E0,0E0,0E0,0E0,0E0,0E0,0E0,0E0,0E0,0E0,0E0,0E0,0E0,0E0,0E0,0E0,0E0,0E0,0E0,0E0],"parents":[2147483647,0,0,1,1,2,2,3,3,4,4,5,5,6,6,8,8,9,9,10,10,11,11,12,12,14,14,15,15,16,16,17,17,18,18,19,19,20,20,21,21,22,22,23,23,24,24,25,25,27,27,28,28,29,29,30,30,31,31,32,32,33,33,35,35,36,36,37,37,38,38,39,39,40,40,41,41,42,42,44,44,46,46,47,47],"right_children":[2,4,6,8,10,12,14,-1,16,18,20,22,24,-1,26,28,30,32,34,36,38,40,42,44,46,48,-1,50,52,54,56,58,60,62,-1,64,66,68,70,72,74,76,78,-1,80,-1,82,84,-1,-1,-1,-1,-1,-1,-1,-1,-1,-1,-1,-1,-1,-1,-1,-1,-1,-1,-1,-1,-1,-1,-1,-1,-1,-1,-1,-1,-1,-1,-1,-1,-1,-1,-1,-1,-1],"split_conditions":[9.8E1,2.8E1,2.15E2,4E0,4.1E1,1.08E2,1.91E2,-4.51959E4,1.36E2,1.07E2,7.6E1,9.3E1,7.27E2,-2.892488E4,1.85E2,2.2E1,4.3E1,3.48E2,8E1,4.7E1,5.4E1,3.8E2,1.89E2,1.08E2,1.3E1,2.55E2,-2.08725E2,6E0,3.2E1,2.6E2,5.27E2,2.14E2,4.13E2,2.7E1,4.5422965E4,8.6E1,4.4E1,4.5E1,1.01E2,4E1,8.4E1,1.77E2,7.1E1,6.762279E3,1.44E2,-1.160681E4,4.71E2,6.51E2,-8.656804E3,1.7960079E3,2.9731986E4,4.707122E3,-2.615776E4,-7.7404785E3,-4.1399812E4,-1.6439608E3,-3.344021E4,2.943663E4,8.83442E4,-3.1167217E4,-5.8605376E3,-4.9580156E3,-2.5191664E4,-3.2923766E4,-6.211041E3,1.062672E4,-1.1660648E4,-9.233778E3,6.0810664E4,-5.609911E3,1.8071805E4,-1.9154532E3,-1.2513036E4,-2.588587E4,-9.929582E3,-3.9202227E3,1.4960382E4,-2.274349E4,-6.749831E3,1.9907244E4,5.19826E3,6.6939517E3,-4.8723126E2,-6.613666E3,-1.9230418E4],"split_indices":[5,3,5,1,5,4,3,0,0,2,3,2,0,0,4,3,2,0,1,1,5,0,3,5,6,2,0,3,0,7,0,0,0,1,0,5,5,5,1,1,4,3,4,0,5,0,2,0,0,0,0,0,0,0,0,0,0,0,0,0,0,0,0,0,0,0,0,0,0,0,0,0,0,0,0,0,0,0,0,0,0,0,0,0,0],"split_type":[0,0,0,0,0,0,0,0,0,0,0,0,0,0,0,0,0,0,0,0,0,0,0,0,0,0,0,0,0,0,0,0,0,0,0,0,0,0,0,0,0,0,0,0,0,0,0,0,0,0,0,0,0,0,0,0,0,0,0,0,0,0,0,0,0,0,0,0,0,0,0,0,0,0,0,0,0,0,0,0,0,0,0,0,0],"sum_hessian":[2.7E2,1.52E2,1.18E2,4E1,1.12E2,8.9E1,2.9E1,4E0,3.6E1,3.2E1,8E1,7.5E1,1.4E1,9E0,2E1,1.3E1,2.3E1,2.6E1,6E0,2.7E1,5.3E1,2.2E1,5.3E1,7E0,7E0,1.9E1,1E0,1.1E1,2E0,4E0,1.9E1,2.4E1,2E0,5E0,1E0,5E0,2.2E1,8E0,4.5E1,1E1,1.2E1,3.4E1,1.9E1,2E0,5E0,2E0,5E0,1.4E1,5E0,5E0,6E0,1E0,1E0,1E0,3E0,1.5E1,4E0,1.4E1,1E1,1E0,1E0,1E0,4E0,4E0,1E0,3E0,1.9E1,2E0,6E0,1.6E1,2.9E1,1E0,9E0,8E0,4E0,3.1E1,3E0,9E0,1E1,4E0,1E0,3E0,2E0,2E0,1.2E1],"tree_param":{"num_deleted":"0","num_feature":"8","num_nodes":"85","size_leaf_vector":"1"}},{"base_weights":[2.7521472E2,8.645839E4,-1.858541E3,1.401867E4,-3.0782014E4,-1.4742252E3,5.7498188E4,-4.5640855E4,-1.4972321E4,-8.37049E4,5.333882E3,1.7553356E5,2.4042729E4,-1.5551769E4,-5.3941598E4,2.699964E4,-2.2796793E4,-3.4717508E4,-6.7434766E3,1.0379235E4,-3.413825E4,-1.7675521E4,2.2604528E5,-1.735059E4,6.009458E4,-2.0597832E4,5.9932407E3,-2.4249967E4,-4.5261773E4,1.0211816E4,3.9202708E3,-3.037903E4,-6.0039775E3,-7.259472E3,6.843122E3,9.20163E3,-5.2279937E3,-1.9381463E4,1.1427479E4,4.5470156E3,7.620209E4,-1.39594E3,-2.378605E4,2.3645762E4,9.801766E2,-8.834387E3,6.755602E2,-5.618849E3,-1.6102819E4,-1.7741719E2,1.9415392E3,-5.9514854E3,-1.4210564E4,-4.740046E3,2.9072847E3],"categories":[],"categories_nodes":[],"categories_segments":[],"categories_sizes":[],"default_left":[0,0,0,0,0,0,0,0,0,0,0,0,0,0,0,0,0,0,0,0,0,0,0,0,0,0,0,0,0,0,0,0,0,0,0,0,0,0,0,0,0,0,0,0,0,0,0,0,0,0,0,0,0,0,0],"id":4,"left_children":[1,-1,3,5,7,9,11,13,15,17,19,21,23,25,27,29,31,-1,33,35,-1,37,39,41,43,45,-1,-1,47,-1,49,51,53,-1,-1,-1,-1,-1,-1,-1,-1,-1,-1,-1,-1,-1,-1,-1,-1,-1,-1,-1,-1,-1,-1],"loss_changes":[1.6702438E11,0E0,1.2442203E11,1.17968904E11,2.1868364E10,7.322505E10,1.7743035E11,1.1399438E10,1.637911E10,2.3862747E10,7.390731E10,1.01588664E11,5.6257987E10,2.562886E9,5.211103E9,1.1663396E9,5.0380165E9,0E0,2.6153956E9,6.6553045E10,0E0,1.0312246E10,4.3324506E10,1.3786858E10,2.1023883E10,2.2907612E9,0E0,0E0,5.915427E9,0E0,3.836223E7,4.0745923E9,2.3056218E9,0E0,0E0,0E0,0E0,0E0,0E0,0E0,0E0,0E0,0E0,0E0,0E0,0E0,0E0,0E0,0E0,0E0,0E0,0E0,0E0,0E0,0E0],"parents":[2147483647,0,0,2,2,3,3,4,4,5,5,6,6,7,7,8,8,9,9,10,10,11,11,12,12,13,13,14,14,15,15,16,16,18,18,19,19,21,21,22,22,23,23,24,24,25,25,28,28,30,30,31,31,32,32],"right_children":[2,-1,4,6,8,10,12,14,16,18,20,22,24,26,28,30,32,-1,34,36,-1,38,40,42,44,46,-1,-1,48,-1,50,52,54,-1,-1,-1,-1,-1,-1,-1,-1,-1,-1,-1,-1,-1,-1,-1,-1,-1,-1,-1,-1,-1,-1],"split_conditions":[1.4E1,8.645839E4,1.17E2,1.13E2,1.69E2,3E0,5.9E1,5.25E2,8.45E2,8E0,1.29E3,2.03E2,7.2E1,1.08E2,8.8E1,7.06E2,4.05E2,-3.4717508E4,1.08E2,5E1,-3.413825E4,1.32E2,3.5E1,2.3E2,2E1,9.3E1,5.9932407E3,-2.4249967E4,1.1E1,1.0211816E4,7.82E2,1.276E3,1.88E2,-7.259472E3,6.843122E3,9.20163E3,-5.2279937E3,-1.9381463E4,1.1427479E4,4.5470156E3,7.620209E4,-1.39594E3,-2.378605E4,2.3645762E4,9.801766E2,-8.834387E3,6.755602E2,-5.618849E3,-1.6102819E4,-1.7741719E2,1.9415392E3,-5.9514854E3,-1.4210564E4,-4.740046E3,2.9072847E3],"split_indices":[0,0,5,3,2,3,5,0,0,1,0,0,4,4,1,0,2,0,0,5,0,0,5,1,6,2,0,0,6,0,0,0,1,0,0,0,0,0,0,0,0,0,0,0,0,0,0,0,0,0,0,0,0,0,0],"split_type":[0,0,0,0,0,0,0,0,0,0,0,0,0,0,0,0,0,0,0,0,0,0,0,0,0,0,0,0,0,0,0,0,0,0,0,0,0,0,0,0,0,0,0,0,0,0,0,0,0,0,0,0,0,0,0],"sum_hessian":[2.7E2,1E0,2.69E2,1.74E2,9.5E1,1.29E2,4.5E1,4.8E1,4.7E1,9E0,1.2E2,9E0,3.6E1,1.1E1,3.7E1,7E0,4E1,6E0,3E0,1.16E2,4E0,2E0,7E0,1.7E1,1.9E1,1E1,1E0,7E0,3E1,5E0,2E0,2.7E1,1.3E1,2E0,1E0,6.7E1,4.9E1,1E0,1E0,1E0,6E0,1.5E1,2E0,1.4E1,5E0,7E0,3E0,8E0,2.2E1,1E0,1E0,1.8E1,9E0,8E0,5E0],"tree_param":{"num_deleted":"0","num_feature":"8","num_nodes":"55","size_leaf_vector":"1"}},{"base_weights":[3.2269974E2,1.24409195E5,-3.4387195E3,7.348963E4,7.219181E4,-3.439585E4,4.1350347E3,2.6208096E3,2.4393533E4,4.2650874E3,-5.498885E4,8.415509E4,-5.0554673E3,-4.274106E4,3.5247094E4,-1.0492796E5,-4.2760453E4,3.942949E3,1.5066997E5,-7.458411E4,-4.1790262E2,3.5510813E3,-6.2906547E4,6.807934E4,-8.931714E3,-3.460596E4,-7.9202676E3,-1.5001542E4,-7.5771305E4,3.9344203E4,-2.035359E4,7.8570625E4,6.2316164E4,-8.5831766E4,-3.669172E3,4.1543094E4,-1.2234959E4,-5.6909844E3,-2.4039709E4,7.715597E3,2.802606E4,-1.5945892E4,7.940147E3,-1.1620301E4,2.1544088E4,-6.964988E3,-2.8964795E4,1.789295E4,-1.5412275E4,3.038249E4,-1.0912045E4,-2.7308951E4,-5.8573643E3,-4.3189814E3,2.63899E4,2.3878424E2,-6.973624E3],"categories":[],"categories_nodes":[],"categories_segments":[],"categories_sizes":[],"default_left":[0,0,0,0,0,0,0,0,0,0,0,0,0,0,0,0,0,0,0,0,0,0,0,0,0,0,0,0,0,0,0,0,0,0,0,0,0,0,0,0,0,0,0,0,0,0,0,0,0,0,0,0,0,0,0,0,0],"id":5,"left_children":[1,3,5,-1,7,9,11,-1,-1,13,15,17,19,21,23,25,27,29,31,33,35,-1,37,39,41,-1,-1,43,45,47,-1,-1,49,51,-1,53,55,-1,-1,-1,-1,-1,-1,-1,-1,-1,-1,-1,-1,-1,-1,-1,-1,-1,-1,-1,-1],"loss_changes":[1.2691471E11,3.2676553E10,6.2040117E10,0E0,3.3406566E9,4.1634054E10,1.5707085E11,0E0,0E0,2.917705E10,1.6276193E10,1.1678255E11,6.1878E10,9.549355E9,1.8013942E10,1.8665472E9,2.5437331E10,3.0624653E10,1.016126E11,7.366189E9,9.025811E10,0E0,3.0209577E9,5.11155E9,1.0799102E10,0E0,0E0,3.7807882E10,1.1954217E10,1.7796043E10,0E0,0E0,3.4442355E10,1.6693821E9,0E0,1.05142485E11,2.0392118E10,0E0,0E0,0E0,0E0,0E0,0E0,0E0,0E0,0E0,0E0,0E0,0E0,0E0,0E0,0E0,0E0,0E0,0E0,0E0,0E0],"parents":[2147483647,0,0,1,1,2,2,4,4,5,5,6,6,9,9,10,10,11,11,12,12,13,13,14,14,15,15,16,16,17,17,18,18,19,19,20,20,22,22,23,23,24,24,27,27,28,28,29,29,32,32,33,33,35,35,36,36],"right_children":[2,4,6,-1,8,10,12,-1,-1,14,16,18,20,22,24,26,28,30,32,34,36,-1,38,40,42,-1,-1,44,46,48,-1,-1,50,52,-1,54,56,-1,-1,-1,-1,-1,-1,-1,-1,-1,-1,-1,-1,-1,-1,-1,-1,-1,-1,-1,-1],"split_conditions":[5E1,1.4E1,4.1E1,7.348963E4,4E0,1.93E2,4.1E1,2.6208096E3,2.4393533E4,1.15E2,4.3E1,6E0,4.4E1,8.1E1,1.36E2,1.4E1,2E1,5.4E1,2.53E2,9.9E1,8.1E1,3.5510813E3,2E0,1.4E1,3.8E1,-3.460596E4,-7.9202676E3,1.6E1,3.79E2,1E2,-2.035359E4,7.8570625E4,6.68E2,1.4E2,-3.669172E3,8.4E1,1.35E2,-5.6909844E3,-2.4039709E4,7.715597E3,2.802606E4,-1.5945892E4,7.940147E3,-1.1620301E4,2.1544088E4,-6.964988E3,-2.8964795E4,1.789295E4,-1.5412275E4,3.038249E4,-1.0912045E4,-2.7308951E4,-5.8573643E3,-4.3189814E3,2.63899E4,2.3878424E2,-6.973624E3],"split_indices":[0,0,3,0,4,0,5,0,0,0,2,6,2,0,0,4,5,2,0,5,5,0,3,3,2,0,0,5,0,1,0,0,0,3,0,1,5,0,0,0,0,0,0,0,0,0,0,0,0,0,0,0,0,0,0,0,0],"split_type":[0,0,0,0,0,0,0,0,0,0,0,0,0,0,0,0,0,0,0,0,0,0,0,0,0,0,0,0,0,0,0,0,0,0,0,0,0,0,0,0,0,0,0,0,0,0,0,0,0,0,0,0,0,0,0,0,0],"sum_hessian":[2.7E2,7E0,2.63E2,1E0,6E0,5.1E1,2.12E2,1E0,5E0,1.8E1,3.3E1,2.1E1,1.91E2,7E0,1.1E1,5E0,2.8E1,1E1,1.1E1,1.1E1,1.8E2,2E0,5E0,6E0,5E0,4E0,1E0,1.6E1,1.2E1,7E0,3E0,4E0,7E0,9E0,2E0,3.9E1,1.41E2,2E0,3E0,3E0,3E0,2E0,3E0,1.3E1,3E0,4E0,8E0,6E0,1E0,5E0,2E0,8E0,1E0,1.8E1,2.1E1,6.5E1,7.6E1],"tree_param":{"num_deleted":"0","num_feature":"8","num_nodes":"57","size_leaf_vector":"1"}},{"base_weights":[5.6609955E2,6.246619E4,-9.741788E2,9.271114E3,-1.666814E4,4.7284995E3,8.697966E4,-5.871247E4,-9.174908E3,-1.827468E4,1.3643645E4,1.34919E5,-6.674289E3,1.7912766E3,-6.3422754E4,6.827504E4,-1.165463E4,2.442418E4,-4.877482E4,6.4720562E4,-1.284632E2,5.472552E4,7.9840474E3,4.7040703E3,-5.8057627E3,-2.324355E4,-2.9426047E4,2.4911635E4,5.812135E3,-3.392563E4,-5.216959E3,-2.9547844E3,1.908005E4,-8.956893E3,-2.6282832E4,-2.575592E3,3.5308543E4,-5.7850386E3,8.741906E3,-1.270516E4,-7.1541565E2,-4.8088394E3,-1.6205302E4,-5.342137E2,-1.2643855E4],"categories":[],"categories_nodes":[],"categories_segments":[],"categories_sizes":[],"default_left":[0,0,0,0,0,0,0,0,0,0,0,0,0,0,0,0,0,0,0,0,0,0,0,0,0,0,0,0,0,0,0,0,0,0,0,0,0,0,0,0,0,0,0,0,0],"id":6,"left_children":[1,-1,3,5,7,9,11,13,15,17,19,21,23,-1,25,27,29,31,33,35,37,-1,-1,-1,-1,-1,39,-1,-1,41,43,-1,-1,-1,-1,-1,-1,-1,-1,-1,-1,-1,-1,-1,-1],"loss_changes":[8.688105E10,0E0,4.356763E10,5.748071E10,3.3171442E10,3.2241295E10,4.1307873E10,5.2535337E9,1.8464719E10,5.8493415E10,7.9496675E10,2.6011886E10,1.4371176E9,0E0,4.887851E9,5.5712154E8,1.2726613E10,2.613765E10,1.648633E10,9.4210785E10,5.101873E10,0E0,0E0,0E0,0E0,0E0,1.9959772E9,0E0,0E0,6.3255347E9,8.934703E9,0E0,0E0,0E0,0E0,0E0,0E0,0E0,0E0,0E0,0E0,0E0,0E0,0E0,0E0],"parents":[2147483647,0,0,2,2,3,3,4,4,5,5,6,6,7,7,8,8,9,9,10,10,11,11,12,12,14,14,15,15,16,16,17,17,18,18,19,19,20,20,26,26,29,29,30,30],"right_children":[2,-1,4,6,8,10,12,14,16,18,20,22,24,-1,26,28,30,32,34,36,38,-1,-1,-1,-1,-1,40,-1,-1,42,44,-1,-1,-1,-1,-1,-1,-1,-1,-1,-1,-1,-1,-1,-1],"split_conditions":[1.4E1,6.246619E4,6.89E2,6.55E2,8E1,1.5E1,7.8E1,8E0,6E1,1.36E2,4.1E1,6.68E2,9.6E1,1.7912766E3,4.5E1,7.86E2,1.65E2,6E0,4.3E1,2.14E2,1.04E2,5.472552E4,7.9840474E3,4.7040703E3,-5.8057627E3,-2.324355E4,1.44E2,2.4911635E4,5.812135E3,1.8E1,2.74E2,-2.9547844E3,1.908005E4,-8.956893E3,-2.6282832E4,-2.575592E3,3.5308543E4,-5.7850386E3,8.741906E3,-1.270516E4,-7.1541565E2,-4.8088394E3,-1.6205302E4,-5.342137E2,-1.2643855E4],"split_indices":[0,0,0,0,1,4,5,1,5,0,5,0,1,0,4,0,2,5,1,0,2,0,0,0,0,0,2,0,0,6,1,0,0,0,0,0,0,0,0,0,0,0,0,0,0],"split_type":[0,0,0,0,0,0,0,0,0,0,0,0,0,0,0,0,0,0,0,0,0,0,0,0,0,0,0,0,0,0,0,0,0,0,0,0,0,0,0,0,0,0,0,0,0],"sum_hessian":[2.7E2,1E0,2.69E2,1.63E2,1.06E2,1.55E2,8E0,1.5E1,9.1E1,4.3E1,1.12E2,5E0,3E0,1E0,1.4E1,2E0,8.9E1,1.8E1,2.5E1,2.3E1,8.9E1,3E0,2E0,1E0,2E0,9E0,5E0,1E0,1E0,1.9E1,7E1,1E1,8E0,1.8E1,7E0,1E1,1.3E1,5.4E1,3.5E1,3E0,2E0,1.1E1,8E0,6.5E1,5E0],"tree_param":{"num_deleted":"0","num_feature":"8","num_nodes":"45","size_leaf_vector":"1"}},{"base_weights":[7.737908E2,5.309626E4,-5.343621E2,1.3107619E4,-6.9817427E3,-1.4266617E4,3.0100516E4,-2.9086014E4,3.6841611E3,4.4594066E4,-4.064999E4,-7.5274883E3,5.245603E4,-5.1987617E4,-1.9576621E4,1.0103826E5,-2.0735098E3,5.1275645E3,5.7867902E4,-5.1592418E4,-1.2316074E4,1.0165215E4,-5.345345E4,8.8336055E4,6.570002E3,-1.675537E4,-6.5271438E4,-2.3282375E3,-3.2592264E4,3.5291613E4,2.1533438E2,1.4159456E4,-1.0471967E4,4.3445815E3,1.8805572E4,-5.2342046E3,-2.40015E4,1.5167017E4,-8.556088E3,-3.013305E3,1.3656564E4,-2.5079766E3,-1.824005E4,1.2694501E3,3.8048414E4,7.700012E3,-6.494873E3,-1.9438965E4,7.039307E3,-2.5139734E4,-9.833174E3,6.1846504E3,-3.405155E3,-1.1340297E4,5.461613E3,1.2072707E4,-2.4008748E3,-6.423969E3,-1.4101593E3],"categories":[],"categories_nodes":[],"categories_segments":[],"categories_sizes":[],"default_left":[0,0,0,0,0,0,0,0,0,0,0,0,0,0,0,0,0,0,0,0,0,0,0,0,0,0,0,0,0,0,0,0,0,0,0,0,0,0,0,0,0,0,0,0,0,0,0,0,0,0,0,0,0,0,0,0,0,0,0],"id":7,"left_children":[1,-1,3,5,7,9,11,13,15,17,19,21,23,25,27,29,31,-1,33,35,37,39,41,43,45,47,49,51,53,-1,-1,55,57,-1,-1,-1,-1,-1,-1,-1,-1,-1,-1,-1,-1,-1,-1,-1,-1,-1,-1,-1,-1,-1,-1,-1,-1,-1,-1],"loss_changes":[6.2564004E10,0E0,2.3839375E10,4.089901E10,4.3487367E10,5.4612816E10,4.58193E10,1.2049076E10,7.027611E10,3.0265836E9,6.805586E9,1.7607008E10,5.539695E10,6.862676E9,9.802064E9,1.1573117E10,1.6371768E10,0E0,5.552312E8,1.5096668E10,9.592327E9,1.1889922E10,1.4794516E9,6.0973007E10,9.178088E9,1.3113628E10,4.4778004E9,4.3740923E9,7.302951E9,0E0,0E0,2.402247E10,4.887944E9,0E0,0E0,0E0,0E0,0E0,0E0,0E0,0E0,0E0,0E0,0E0,0E0,0E0,0E0,0E0,0E0,0E0,0E0,0E0,0E0,0E0,0E0,0E0,0E0,0E0,0E0],"parents":[2147483647,0,0,2,2,3,3,4,4,5,5,6,6,7,7,8,8,9,9,10,10,11,11,12,12,13,13,14,14,15,15,16,16,18,18,19,19,20,20,21,21,22,22,23,23,24,24,25,25,26,26,27,27,28,28,31,31,32,32],"right_children":[2,-1,4,6,8,10,12,14,16,18,20,22,24,26,28,30,32,-1,34,36,38,40,42,44,46,48,50,52,54,-1,-1,56,58,-1,-1,-1,-1,-1,-1,-1,-1,-1,-1,-1,-1,-1,-1,-1,-1,-1,-1,-1,-1,-1,-1,-1,-1,-1,-1],"split_conditions":[1.4E1,5.309626E4,3.53E2,4.3E1,9.2E1,8.3E1,2E1,8.5E1,5.9E1,5E0,4.98E2,8.4E1,5.4E1,6.28E2,1.087E3,1.48E2,1.18E2,5.1275645E3,1E0,1.7E1,2.3E1,2.4E1,2E0,2.14E2,1.19E2,1E0,2.9E1,5E0,8.8E1,3.5291613E4,2.1533438E2,7.13E2,1.52E2,4.3445815E3,1.8805572E4,-5.2342046E3,-2.40015E4,1.5167017E4,-8.556088E3,-3.013305E3,1.3656564E4,-2.5079766E3,-1.824005E4,1.2694501E3,3.8048414E4,7.700012E3,-6.494873E3,-1.9438965E4,7.039307E3,-2.5139734E4,-9.833174E3,6.1846504E3,-3.405155E3,-1.1340297E4,5.461613E3,1.2072707E4,-2.4008748E3,-6.423969E3,-1.4101593E3],"split_indices":[0,0,0,2,1,0,5,2,5,5,7,2,5,7,7,1,5,0,6,3,4,1,6,0,1,3,4,6,1,0,0,0,2,0,0,0,0,0,0,0,0,0,0,0,0,0,0,0,0,0,0,0,0,0,0,0,0,0,0],"split_type":[0,0,0,0,0,0,0,0,0,0,0,0,0,0,0,0,0,0,0,0,0,0,0,0,0,0,0,0,0,0,0,0,0,0,0,0,0,0,0,0,0,0,0,0,0,0,0,0,0,0,0,0,0,0,0,0,0,0,0],"sum_hessian":[2.7E2,1E0,2.69E2,8.6E1,1.83E2,3.3E1,5.3E1,5.9E1,1.24E2,1E1,2.3E1,2E1,3.3E1,1.6E1,4.3E1,6E0,1.18E2,4E0,6E0,1.6E1,7E0,1.5E1,5E0,1.8E1,1.5E1,5E0,1.1E1,1.9E1,2.4E1,5E0,1E0,4E1,7.8E1,1E0,5E0,8E0,8E0,1E0,6E0,1E1,5E0,1E0,4E0,6E0,1.2E1,9E0,6E0,2E0,3E0,6E0,5E0,5E0,1.4E1,2.2E1,2E0,1.8E1,2.2E1,2.6E1,5.2E1],"tree_param":{"num_deleted":"0","num_feature":"8","num_nodes":"59","size_leaf_vector":"1"}},{"base_weights":[8.2224677E2,4.5131812E4,-2.890736E2,-1.9046764E4,6.588275E2,7.077254E3,-9.004962E3,4.0549438E3,5.767016E4,-3.114108E4,-3.8716965E3,8.1201685E3,-1.6114428E4,8.967432E4,-4.753625E3,1.16051455E4,-3.653539E4,-1.3055343E4,-1.9604478E3,-2.7833691E3,4.588819E3,-7.7156143E3,2.6130154E3,3.6213086E4,5.5204814E3,2.1875532E3,-3.3598188E3,4.6274297E3,5.94886E2,-1.8855834E4,-8.124519E3,5.227777E3,-1.7108374E3],"categories":[],"categories_nodes":[],"categories_segments":[],"categories_sizes":[],"default_left":[0,0,0,0,0,0,0,0,0,0,0,0,0,0,0,0,0,0,0,0,0,0,0,0,0,0,0,0,0,0,0,0,0],"id":8,"left_children":[1,-1,3,-1,5,7,9,11,13,15,17,19,21,23,25,27,29,-1,31,-1,-1,-1,-1,-1,-1,-1,-1,-1,-1,-1,-1,-1,-1],"loss_changes":[4.510335E10,0E0,1.6216848E10,0E0,1.6624757E10,2.438425E10,1.2037902E10,1.2675784E10,1.8406662E10,5.035727E9,6.582761E9,1.6122288E10,6.4229663E9,1.1050844E10,3.9223357E8,7.967274E7,2.7761603E9,0E0,6.2661647E9,0E0,0E0,0E0,0E0,0E0,0E0,0E0,0E0,0E0,0E0,0E0,0E0,0E0,0E0],"parents":[2147483647,0,0,2,2,4,4,5,5,6,6,7,7,8,8,9,9,10,10,11,11,12,12,13,13,14,14,15,15,16,16,18,18],"right_children":[2,-1,4,-1,6,8,10,12,14,16,18,20,22,24,26,28,30,-1,32,-1,-1,-1,-1,-1,-1,-1,-1,-1,-1,-1,-1,-1,-1],"split_conditions":[1.4E1,4.5131812E4,2E0,-1.9046764E4,6.89E2,6.55E2,1.54E2,5.59E2,7.8E1,5E0,4.7E1,4.5E1,7.3E1,6.68E2,9.6E1,7.42E2,7.5E1,-1.3055343E4,1.491E3,-2.7833691E3,4.588819E3,-7.7156143E3,2.6130154E3,3.6213086E4,5.5204814E3,2.1875532E3,-3.3598188E3,4.6274297E3,5.94886E2,-1.8855834E4,-8.124519E3,5.227777E3,-1.7108374E3],"split_indices":[0,0,1,0,0,0,2,0,5,6,1,2,4,0,1,0,5,0,7,0,0,0,0,0,0,0,0,0,0,0,0,0,0],"split_type":[0,0,0,0,0,0,0,0,0,0,0,0,0,0,0,0,0,0,0,0,0,0,0,0,0,0,0,0,0,0,0,0,0],"sum_hessian":[2.7E2,1E0,2.69E2,3E0,2.66E2,1.6E2,1.06E2,1.52E2,8E0,1.9E1,8.7E1,1.27E2,2.5E1,5E0,3E0,2E0,1.7E1,3E0,8.4E1,3.7E1,9E1,1.8E1,7E0,3E0,2E0,1E0,2E0,1E0,1E0,3E0,1.4E1,1.3E1,7.1E1],"tree_param":{"num_deleted":"0","num_feature":"8","num_nodes":"33","size_leaf_vector":"1"}},{"base_weights":[6.938535E2,6.097145E4,-1.6094664E3,3.836205E4,3.9329723E4,-1.7513541E4,2.603676E3,2.2830768E4,1.9415213E4,1.3691711E3,-2.8342783E4,2.5032469E4,-2.2362603E3,7.571524E3,1.257736E3,-2.8252115E4,2.1770895E4,-5.4798727E4,-1.97717E4,-1.5589823E4,3.5940355E4,-2.4766887E4,1.2333441E3,4.5518345E3,-4.282677E4,4.84045E4,-9.256719E2,-6.720391E3,-2.4478746E4,1.9313943E4,-2.7090723E4,-2.5718958E2,6.262577E4,-5.4175707E4,-8.514545E3,1.1926851E4,-6.2299224E3,-3.3176218E3,-1.599667E4,4.9549126E3,1.8065842E4,-8.211202E3,6.124639E3,8.652781E3,-2.8201033E3,4.855819E3,-8.902819E3,-5.1275117E3,1.5093197E4,4.785376E4,1.0346991E4,-8.190053E3,-2.226786E4,4.6232627E3,-5.3321772E3,-3.3700676E3,6.068056E3,2.1620815E3,-3.1456577E3],"categories":[],"categories_nodes":[],"categories_segments":[],"categories_sizes":[],"default_left":[0,0,0,0,0,0,0,0,0,0,0,0,0,0,0,0,0,0,0,0,0,0,0,0,0,0,0,0,0,0,0,0,0,0,0,0,0,0,0,0,0,0,0,0,0,0,0,0,0,0,0,0,0,0,0,0,0,0,0],"id":9,"left_children":[1,3,5,-1,7,9,11,13,-1,15,17,19,21,-1,-1,23,25,27,29,-1,31,33,35,-1,37,39,41,-1,-1,43,45,47,49,51,53,55,57,-1,-1,-1,-1,-1,-1,-1,-1,-1,-1,-1,-1,-1,-1,-1,-1,-1,-1,-1,-1,-1,-1],"loss_changes":[3.7723386E10,9.449533E9,1.7601206E10,0E0,2.2922793E9,1.1285505E10,2.2635198E10,2.0831027E8,0E0,1.3305904E10,6.852999E9,3.2943657E10,1.3476191E10,0E0,0E0,6.3459277E9,7.9031936E9,5.117401E9,8.533152E9,0E0,3.189234E10,1.0531848E10,1.2045576E10,0E0,1.7442632E9,1.2659364E9,5.0737147E9,0E0,0E0,1.6391736E9,3.1655834E9,1.3629173E10,4.6292165E10,2.2845522E9,3.8184643E9,1.214557E10,5.164762E9,0E0,0E0,0E0,0E0,0E0,0E0,0E0,0E0,0E0,0E0,0E0,0E0,0E0,0E0,0E0,0E0,0E0,0E0,0E0,0E0,0E0,0E0],"parents":[2147483647,0,0,1,1,2,2,4,4,5,5,6,6,7,7,9,9,10,10,11,11,12,12,15,15,16,16,17,17,18,18,20,20,21,21,22,22,24,24,25,25,26,26,29,29,30,30,31,31,32,32,33,33,34,34,35,35,36,36],"right_children":[2,4,6,-1,8,10,12,14,-1,16,18,20,22,-1,-1,24,26,28,30,-1,32,34,36,-1,38,40,42,-1,-1,44,46,48,50,52,54,56,58,-1,-1,-1,-1,-1,-1,-1,-1,-1,-1,-1,-1,-1,-1,-1,-1,-1,-1,-1,-1,-1,-1],"split_conditions":[6.5E1,1.4E1,5.5E1,3.836205E4,2.9E1,1.93E2,5.4E1,5E1,1.9415213E4,1.15E2,3.91E2,1.5E1,7.8E1,7.571524E3,1.257736E3,8.3E1,8E0,8E0,4.96E2,-1.5589823E4,6E0,7.6E1,7.17E2,4.5518345E3,2E0,7E0,3.8E1,-6.720391E3,-2.4478746E4,7.8E1,2E0,4E1,5.56E2,4.3E1,5E0,8.2E1,1E2,-3.3176218E3,-1.599667E4,4.9549126E3,1.8065842E4,-8.211202E3,6.124639E3,8.652781E3,-2.8201033E3,4.855819E3,-8.902819E3,-5.1275117E3,1.5093197E4,4.785376E4,1.0346991E4,-8.190053E3,-2.226786E4,4.6232627E3,-5.3321772E3,-3.3700676E3,6.068056E3,2.1620815E3,-3.1456577E3],"split_indices":[0,0,1,0,1,0,5,0,0,0,7,4,2,0,0,0,5,3,7,0,6,5,0,0,3,3,2,0,0,2,6,4,7,2,6,1,3,0,0,0,0,0,0,0,0,0,0,0,0,0,0,0,0,0,0,0,0,0,0],"split_type":[0,0,0,0,0,0,0,0,0,0,0,0,0,0,0,0,0,0,0,0,0,0,0,0,0,0,0,0,0,0,0,0,0,0,0,0,0,0,0,0,0,0,0,0,0,0,0,0,0,0,0,0,0,0,0,0,0,0,0],"sum_hessian":[2.7E2,9E0,2.61E2,1E0,8E0,5.4E1,2.07E2,6E0,2E0,2E1,3.4E1,3.6E1,1.71E2,5E0,1E0,8E0,1.2E1,7E0,2.7E1,4E0,3.2E1,2.2E1,1.49E2,2E0,6E0,5E0,7E0,4E0,3E0,4E0,2.3E1,1.4E1,1.8E1,7E0,1.5E1,6.1E1,8.8E1,2E0,4E0,2E0,3E0,3E0,4E0,3E0,1E0,1E0,2.2E1,1.1E1,3E0,3E0,1.5E1,4E0,3E0,4E0,1.1E1,1.6E1,4.5E1,2.1E1,6.7E1],"tree_param":{"num_deleted":"0","num_feature":"8","num_nodes":"59","size_leaf_vector":"1"}},{"base_weights":[7.310424E2,6.055932E4,-8.520859E2,2.7721501E3,7.923875E4,-1.2718479E4,2.1045852E3,7.1592256E3,3.246015E4,4.9419443E3,-2.273289E4,9.553877E4,7.661626E2,-1.6132203E4,2.0335727E4,-4.2258992E4,-1.6105419E4,3.4244363E4,8.748085E3,-3.4581805E4,1.969429E3,1.6954635E3,-3.8840652E4,2.6542342E4,-7.190555E3,-2.0848404E4,-2.1298154E4,6.754655E3,-2.1871184E4,-4.5518125E4,4.655419E3,1.6826047E4,-1.8473231E3,2.8559556E3,-2.7906626E3,-1.4668847E4,-1.3011235E3,-1.4415438E3,1.0212707E4,-6.816017E3,-1.7235211E3,-4.4537603E3,-1.2141847E4,-3.7469016E3,-1.4887766E4,8.495444E2,1.680207E4,-3.5106846E3,6.9944165E2],"categories":[],"categories_nodes":[],"categories_segments":[],"categories_sizes":[],"default_left":[0,0,0,0,0,0,0,0,0,0,0,0,0,0,0,0,0,0,0,0,0,0,0,0,0,0,0,0,0,0,0,0,0,0,0,0,0,0,0,0,0,0,0,0,0,0,0,0,0],"id":10,"left_children":[1,3,5,-1,7,9,11,-1,-1,13,15,17,19,21,23,25,27,-1,-1,29,31,33,35,37,-1,39,-1,-1,41,43,-1,45,47,-1,-1,-1,-1,-1,-1,-1,-1,-1,-1,-1,-1,-1,-1,-1,-1],"loss_changes":[2.5719595E10,5.978036E9,9.324297E9,0E0,5.436631E9,9.485859E9,2.6563394E10,0E0,0E0,6.8162765E9,3.719297E9,3.7714944E8,9.042573E9,3.7094008E9,3.935933E9,3.4417326E9,6.504778E9,0E0,0E0,4.541711E9,1.1655409E10,6.04856E8,1.1757368E9,2.7497503E9,0E0,3.9080704E7,0E0,0E0,2.5355244E9,1.9422618E8,0E0,2.287025E10,6.7811077E9,0E0,0E0,0E0,0E0,0E0,0E0,0E0,0E0,0E0,0E0,0E0,0E0,0E0,0E0,0E0,0E0],"parents":[2147483647,0,0,1,1,2,2,4,4,5,5,6,6,9,9,10,10,11,11,12,12,13,13,14,14,15,15,16,16,19,19,20,20,21,21,22,22,23,23,25,25,28,28,29,29,31,31,32,32],"right_children":[2,4,6,-1,8,10,12,-1,-1,14,16,18,20,22,24,26,28,-1,-1,30,32,34,36,38,-1,40,-1,-1,42,44,-1,46,48,-1,-1,-1,-1,-1,-1,-1,-1,-1,-1,-1,-1,-1,-1,-1,-1],"split_conditions":[4.9E1,1E0,4.1E1,2.7721501E3,1.5E1,1.93E2,4.2E1,7.1592256E3,3.246015E4,1.15E2,3.91E2,2.49E2,2E0,1.54E2,3.3E1,1.9E1,4.48E2,3.4244363E4,8.748085E3,5.6E1,6.3E1,8.1E1,4.7E1,1E0,-7.190555E3,2.39E2,-2.1298154E4,6.754655E3,3.2E1,1.2E1,4.655419E3,1.13E2,1.07E2,2.8559556E3,-2.7906626E3,-1.4668847E4,-1.3011235E3,-1.4415438E3,1.0212707E4,-6.816017E3,-1.7235211E3,-4.4537603E3,-1.2141847E4,-3.7469016E3,-1.4887766E4,8.495444E2,1.680207E4,-3.5106846E3,6.9944165E2],"split_indices":[0,6,3,0,3,0,3,0,0,0,7,0,6,7,1,1,7,0,0,2,5,0,2,6,0,0,0,0,3,1,0,3,2,0,0,0,0,0,0,0,0,0,0,0,0,0,0,0,0],"split_type":[0,0,0,0,0,0,0,0,0,0,0,0,0,0,0,0,0,0,0,0,0,0,0,0,0,0,0,0,0,0,0,0,0,0,0,0,0,0,0,0,0,0,0,0,0,0,0,0,0],"sum_hessian":[2.7E2,6E0,2.64E2,2E0,4E0,5.2E1,2.12E2,2E0,2E0,1.9E1,3.3E1,2E0,2.1E2,8E0,1.1E1,7E0,2.6E1,1E0,1E0,6E0,2.04E2,5E0,3E0,1E1,1E0,5E0,2E0,3E0,2.3E1,5E0,1E0,4.1E1,1.63E2,3E0,2E0,2E0,1E0,2E0,8E0,4E0,1E0,1.8E1,5E0,1E0,4E0,3.1E1,1E1,4.8E1,1.15E2],"tree_param":{"num_deleted":"0","num_feature":"8","num_nodes":"49","size_leaf_vector":"1"}},{"base_weights":[6.307055E2,2.7738732E4,-5.186551E1,2.2713332E4,-1.014809E3,7.8973438E3,3.005142E4,-1.849382E4,1.1744415E3,3.0097346E3,9.3893756E2,2.5588594E3,3.2216812E4,-2.2097915E3,-2.5711143E4,1.963455E4,-1.7703245E3,1.0465729E4,2.8308096E3,-2.2535105E4,2.2622543E4,-4.3924195E4,-3.1056719E3,5.4716196E3,6.943479E4,-1.4067141E4,4.0768538E3,-3.7335945E3,-1.0947609E4,-5.659219E2,1.1877193E4,-1.6159897E4,1.6307812E2,1.0681238E4,-5.1700913E3,-1.9476135E3,7.5788066E3,5.8784064E2,2.8809908E4,-2.3930244E3,-7.6825537E3,1.8009545E4,-2.4052217E2],"categories":[],"categories_nodes":[],"categories_segments":[],"categories_sizes":[],"default_left":[0,0,0,0,0,0,0,0,0,0,0,0,0,0,0,0,0,0,0,0,0,0,0,0,0,0,0,0,0,0,0,0,0,0,0,0,0,0,0,0,0,0,0],"id":11,"left_children":[1,-1,3,5,7,9,11,13,15,-1,-1,-1,17,19,21,23,25,-1,-1,27,29,31,33,35,37,39,41,-1,-1,-1,-1,-1,-1,-1,-1,-1,-1,-1,-1,-1,-1,-1,-1],"loss_changes":[1.699153E10,0E0,5.9418813E9,9.586048E8,9.970863E9,1.949664E7,5.1428864E7,3.351469E9,1.2646442E10,0E0,0E0,0E0,3.5621376E7,5.557051E9,8.09788E9,2.2190236E10,1.4509587E10,0E0,0E0,3.9078016E8,2.154036E9,4.8924303E9,6.082495E9,6.3201224E9,1.2374899E10,4.364674E9,3.7446603E10,0E0,0E0,0E0,0E0,0E0,0E0,0E0,0E0,0E0,0E0,0E0,0E0,0E0,0E0,0E0,0E0],"parents":[2147483647,0,0,2,2,3,3,4,4,5,5,6,6,7,7,8,8,12,12,13,13,14,14,15,15,16,16,19,19,20,20,21,21,22,22,23,23,24,24,25,25,26,26],"right_children":[2,-1,4,6,8,10,12,14,16,-1,-1,-1,18,20,22,24,26,-1,-1,28,30,32,34,36,38,40,42,-1,-1,-1,-1,-1,-1,-1,-1,-1,-1,-1,-1,-1,-1,-1,-1],"split_conditions":[1.4E1,2.7738732E4,8.3E1,5E0,4.4E1,1E1,1E0,2.68E2,2.59E2,3.0097346E3,9.3893756E2,2.5588594E3,6.5E1,1.8E1,5.2E2,2.41E2,8.8E1,1.0465729E4,2.8308096E3,1E1,1.1E1,5.1E1,4.1E1,5.9E1,4.1E1,1.6E2,6E1,-3.7335945E3,-1.0947609E4,-5.659219E2,1.1877193E4,-1.6159897E4,1.6307812E2,1.0681238E4,-5.1700913E3,-1.9476135E3,7.5788066E3,5.8784064E2,2.8809908E4,-2.3930244E3,-7.6825537E3,1.8009545E4,-2.4052217E2],"split_indices":[0,0,0,5,2,1,6,7,0,0,0,0,0,2,7,0,1,0,0,1,1,5,5,1,3,2,5,0,0,0,0,0,0,0,0,0,0,0,0,0,0,0,0],"split_type":[0,0,0,0,0,0,0,0,0,0,0,0,0,0,0,0,0,0,0,0,0,0,0,0,0,0,0,0,0,0,0,0,0,0,0,0,0,0,0,0,0,0,0],"sum_hessian":[2.7E2,1E0,2.69E2,1E1,2.59E2,4E0,6E0,2.8E1,2.31E2,2E0,2E0,1E0,5E0,9E0,1.9E1,3.1E1,2E2,4E0,1E0,5E0,4E0,1E1,9E0,2.5E1,6E0,6.4E1,1.36E2,4E0,1E0,2E0,2E0,8E0,2E0,2E0,7E0,1.6E1,9E0,2E0,4E0,4.3E1,2.1E1,1E1,1.26E2],"tree_param":{"num_deleted":"0","num_feature":"8","num_nodes":"43","size_leaf_vector":"1"}},{"base_weights":[7.234498E2,2.357792E4,1.4395845E2,1.4928538E3,-1.5129628E4,2.957564E2,4.9926004E4,-4.5598793E4,-3.4858271E3,1.4256786E3,-1.989176E4,3.3325953E4,1.5476606E4,-1.6260156E4,-3.8852347E2,8.509008E3,-1.2733112E4,-8.630238E1,1.340854E4,-2.7711578E4,4.6307266E3,5.886125E3,1.8521782E3,3.9073079E3,-3.3580312E3,-1.937398E4,9.220239E3,4.9439453E2,-4.9152773E3,5.6461904E3,-2.3305642E3,-9.029142E3,-9.3622974E2,-4.7886096E2,2.1715312E3,-3.1275E2,-1.1983641E3,-8.421313E2,-7.328527E3,2.801953E2,3.8689126E3],"categories":[],"categories_nodes":[],"categories_segments":[],"categories_sizes":[],"default_left":[0,0,0,0,0,0,0,0,0,0,0,0,0,0,0,0,0,0,0,0,0,0,0,0,0,0,0,0,0,0,0,0,0,0,0,0,0,0,0,0,0],"id":12,"left_children":[1,-1,3,5,7,9,11,13,15,17,19,-1,21,-1,-1,23,25,27,29,31,33,-1,-1,-1,35,37,39,-1,-1,-1,-1,-1,-1,-1,-1,-1,-1,-1,-1,-1,-1],"loss_changes":[1.2217498E10,0E0,5.585253E9,1.4422055E10,7.646141E9,5.594078E9,1.0922413E10,2.2163364E9,1.9939804E9,4.2045002E9,2.621223E9,0E0,7.160768E7,0E0,0E0,4.7240698E8,1.6365258E9,5.8779146E9,3.1261307E9,4.9270272E8,7.650614E7,0E0,0E0,0E0,2.573E5,6.013174E8,7.933917E7,0E0,0E0,0E0,0E0,0E0,0E0,0E0,0E0,0E0,0E0,0E0,0E0,0E0,0E0],"parents":[2147483647,0,0,2,2,3,3,4,4,5,5,6,6,7,7,8,8,9,9,10,10,12,12,15,15,16,16,17,17,18,18,19,19,20,20,24,24,25,25,26,26],"right_children":[2,-1,4,6,8,10,12,14,16,18,20,-1,22,-1,-1,24,26,28,30,32,34,-1,-1,-1,36,38,40,-1,-1,-1,-1,-1,-1,-1,-1,-1,-1,-1,-1,-1,-1],"split_conditions":[1.4E1,2.357792E4,2.28E2,2.13E2,1.26E2,1.357E3,7.8E1,1.074E3,9.62E2,9.6E1,4.22E2,3.3325953E4,2.19E2,-1.6260156E4,-3.8852347E2,2.79E2,2.86E2,2.35E2,1.136E3,1.6E2,1.458E3,5.886125E3,1.8521782E3,3.9073079E3,8.45E2,2.53E2,1.156E3,4.9439453E2,-4.9152773E3,5.6461904E3,-2.3305642E3,-9.029142E3,-9.3622974E2,-4.7886096E2,2.1715312E3,-3.1275E2,-1.1983641E3,-8.421313E2,-7.328527E3,2.801953E2,3.8689126E3],"split_indices":[0,0,1,1,5,0,5,0,0,4,2,0,1,0,0,5,1,3,0,1,0,0,0,0,0,3,0,0,0,0,0,0,0,0,0,0,0,0,0,0,0],"split_type":[0,0,0,0,0,0,0,0,0,0,0,0,0,0,0,0,0,0,0,0,0,0,0,0,0,0,0,0,0,0,0,0,0,0,0,0,0,0,0,0,0],"sum_hessian":[2.7E2,1E0,2.69E2,2.48E2,2.1E1,2.43E2,5E0,5E0,1.6E1,2.31E2,1.2E1,1E0,4E0,4E0,1E0,7E0,9E0,2.06E2,2.5E1,9E0,3E0,2E0,2E0,5E0,2E0,7E0,2E0,1.87E2,1.9E1,2E1,5E0,8E0,1E0,1E0,2E0,1E0,1E0,2E0,5E0,1E0,1E0],"tree_param":{"num_deleted":"0","num_feature":"8","num_nodes":"41","size_leaf_vector":"1"}},{"base_weights":[6.4291064E2,3.6843527E4,-3.1575815E2,1.1623594E4,5.285258E4,-7.6943633E3,1.7432556E3,4.28095E3,5.5273126E2,2.100872E3,1.9740451E4,-2.3255352E3,-3.3232184E4,1.125753E4,-2.468171E3,4.336588E3,-1.7715453E4,-1.4338798E4,-1.55569795E4,7.877294E3,2.3208969E4,-1.2126905E4,2.14222E3,-2.4840076E3,2.4316531E4,-4.6664496E4,6.768854E3,-2.7513582E3,-7.122886E3,-9.793332E3,1.5912997E4,-2.6638346E4,-5.1633135E3,2.8273773E4,-1.7871184E3,1.0001309E3,-5.015385E3,2.2835024E3,1.0847425E4,-1.666638E4,1.0014141E3,-7.1527876E3,4.0726853E3,5.847017E2,-9.563688E3,3.1574693E4,2.6964287E3,-8.818077E3,1.7902594E3,2.2550684E3,-3.8301282E3,2.4799545E4,3.2608264E3,-7.7249336E3,2.89628E2],"categories":[],"categories_nodes":[],"categories_segments":[],"categories_sizes":[],"default_left":[0,0,0,0,0,0,0,0,0,0,0,0,0,0,0,0,0,0,0,0,0,0,0,0,0,0,0,0,0,0,0,0,0,0,0,0,0,0,0,0,0,0,0,0,0,0,0,0,0,0,0,0,0,0,0],"id":13,"left_children":[1,3,5,7,9,11,13,-1,-1,-1,-1,15,17,19,21,23,25,-1,27,29,-1,31,33,35,37,39,41,-1,-1,43,45,47,49,51,53,-1,-1,-1,-1,-1,-1,-1,-1,-1,-1,-1,-1,-1,-1,-1,-1,-1,-1,-1,-1],"loss_changes":[9.416527E9,2.2118922E9,4.0394652E9,7.724186E7,1.9140147E9,7.8749916E9,8.3620685E9,0E0,0E0,0E0,0E0,5.1007713E9,1.8306222E9,1.3691569E10,6.482906E9,4.830032E9,1.0947826E10,0E0,9.589197E7,8.959588E9,0E0,4.6118907E9,1.0215821E10,2.2916012E9,1.5050788E9,3.2971356E9,2.1989642E9,0E0,0E0,5.2488704E9,2.5655656E10,1.5229645E9,3.2777467E9,1.1407885E10,5.763232E9,0E0,0E0,0E0,0E0,0E0,0E0,0E0,0E0,0E0,0E0,0E0,0E0,0E0,0E0,0E0,0E0,0E0,0E0,0E0,0E0],"parents":[2147483647,0,0,1,1,2,2,3,3,4,4,5,5,6,6,11,11,12,12,13,13,14,14,15,15,16,16,18,18,19,19,21,21,22,22,23,23,24,24,25,25,26,26,29,29,30,30,31,31,32,32,33,33,34,34],"right_children":[2,4,6,8,10,12,14,-1,-1,-1,-1,16,18,20,22,24,26,-1,28,30,-1,32,34,36,38,40,42,-1,-1,44,46,48,50,52,54,-1,-1,-1,-1,-1,-1,-1,-1,-1,-1,-1,-1,-1,-1,-1,-1,-1,-1,-1,-1],"split_conditions":[4.9E1,2.7E1,5E0,2.5E1,1E0,1E2,4.93E2,4.28095E3,5.5273126E2,2.100872E3,1.9740451E4,2.84E2,1.18E2,4.87E2,1.07E2,7.4E1,4.65E2,-1.4338798E4,1.79E2,4.1E1,2.3208969E4,7.6E1,8.1E1,3.15E2,2.31E2,5.9E1,1E0,-2.7513582E3,-7.122886E3,4.8E1,4.7E1,2.3E1,9.8E1,1.44E2,9.2E1,1.0001309E3,-5.015385E3,2.2835024E3,1.0847425E4,-1.666638E4,1.0014141E3,-7.1527876E3,4.0726853E3,5.847017E2,-9.563688E3,3.1574693E4,2.6964287E3,-8.818077E3,1.7902594E3,2.2550684E3,-3.8301282E3,2.4799545E4,3.2608264E3,-7.7249336E3,2.89628E2],"split_indices":[0,3,6,0,6,1,0,0,0,0,0,0,1,0,1,3,0,0,1,3,0,5,5,7,0,5,3,0,0,1,3,6,5,2,5,0,0,0,0,0,0,0,0,0,0,0,0,0,0,0,0,0,0,0,0],"split_type":[0,0,0,0,0,0,0,0,0,0,0,0,0,0,0,0,0,0,0,0,0,0,0,0,0,0,0,0,0,0,0,0,0,0,0,0,0,0,0,0,0,0,0,0,0,0,0,0,0,0,0,0,0,0,0],"sum_hessian":[2.7E2,6E0,2.64E2,3E0,3E0,5.7E1,2.07E2,2E0,1E0,1E0,2E0,4.8E1,9E0,6.3E1,1.44E2,3.4E1,1.4E1,4E0,5E0,6.1E1,2E0,4.6E1,9.8E1,2.6E1,8E0,6E0,8E0,4E0,1E0,1.9E1,4.2E1,1.4E1,3.2E1,1.2E1,8.6E1,1.9E1,7E0,4E0,4E0,5E0,1E0,1E0,7E0,1.3E1,6E0,2E0,4E1,1.3E1,1E0,1.2E1,2E1,2E0,1E1,8E0,7.8E1],"tree_param":{"num_deleted":"0","num_feature":"8","num_nodes":"55","size_leaf_vector":"1"}},{"base_weights":[6.4692365E2,4.654673E4,1.3262497E2,1.7080164E4,3.8658657E3,1.01618463E3,-1.3902174E4,-1.6037318E2,1.5576788E4,-1.5896968E4,-7.7636665E3,5.471602E2,-1.2400231E4,2.4607127E4,7.328415E3,3.70205E3,-1.2269568E4,1.3425209E1,1.8656055E4,-1.2215398E4,2.0875877E4,8.6088545E3,-2.4387708E3,1.2312798E3,-1.4317378E4,6.292992E2,-2.1196123E3,-8.670338E3,1.0728788E3,7.8538574E3,-5.9810626E2,6.2885156E2,3.245133E3,-1.7420625E2,-9.2324066E2,-7.6444126E3,-2.5023623E3],"categories":[],"categories_nodes":[],"categories_segments":[],"categories_sizes":[],"default_left":[0,0,0,0,0,0,0,0,0,0,0,0,0,0,0,0,0,0,0,0,0,0,0,0,0,0,0,0,0,0,0,0,0,0,0,0,0],"id":14,"left_children":[1,3,5,-1,-1,7,9,11,13,-1,15,17,-1,-1,19,21,23,25,-1,27,29,31,33,-1,35,-1,-1,-1,-1,-1,-1,-1,-1,-1,-1,-1,-1],"loss_changes":[6.3911096E9,3.152471E8,3.3498836E9,0E0,0E0,4.353872E9,3.427648E9,6.8977183E9,9.812402E9,0E0,8.203733E8,7.6646927E9,0E0,0E0,5.0208507E9,1.7165405E8,4.2759782E8,3.4377272E9,0E0,2.2113208E9,1.3864069E9,2.047048E7,1.773214E6,0E0,4.5463424E8,0E0,0E0,0E0,0E0,0E0,0E0,0E0,0E0,0E0,0E0,0E0,0E0],"parents":[2147483647,0,0,1,1,2,2,5,5,6,6,7,7,8,8,10,10,11,11,14,14,15,15,16,16,17,17,19,19,20,20,21,21,22,22,24,24],"right_children":[2,4,6,-1,-1,8,10,12,14,-1,16,18,-1,-1,20,22,24,26,-1,28,30,32,34,-1,36,-1,-1,-1,-1,-1,-1,-1,-1,-1,-1,-1,-1],"split_conditions":[1.5E1,1.4E1,2.43E2,1.7080164E4,3.8658657E3,1.9E2,1.4E2,1.83E2,7.8E1,-1.5896968E4,2.64E2,1.81E2,-1.2400231E4,2.4607127E4,2.01E2,1.65E2,9.1E1,1.38E2,1.8656055E4,1.05E2,3.88E2,4.17E2,1.067E3,1.2312798E3,1.24E2,6.292992E2,-2.1196123E3,-8.670338E3,1.0728788E3,7.8538574E3,-5.9810626E2,6.2885156E2,3.245133E3,-1.7420625E2,-9.2324066E2,-7.6444126E3,-2.5023623E3],"split_indices":[0,0,1,0,0,1,3,1,5,0,3,1,0,0,2,5,2,5,0,5,3,0,0,0,2,0,0,0,0,0,0,0,0,0,0,0,0],"split_type":[0,0,0,0,0,0,0,0,0,0,0,0,0,0,0,0,0,0,0,0,0,0,0,0,0,0,0,0,0,0,0,0,0,0,0,0,0],"sum_hessian":[2.7E2,2E0,2.68E2,1E0,1E0,2.53E2,1.5E1,2.35E2,1.8E1,1E0,1.4E1,2.32E2,3E0,1E0,1.7E1,4E0,1E1,2.31E2,1E0,7E0,1E1,2E0,2E0,1E0,9E0,1.79E2,5.2E1,3E0,4E0,8E0,2E0,1E0,1E0,1E0,1E0,2E0,7E0],"tree_param":{"num_deleted":"0","num_feature":"8","num_nodes":"37","size_leaf_vector":"1"}},{"base_weights":[5.559457E2,2.0122467E4,-3.4926273E2,1.4518145E4,1.3152906E4,-1.1787341E4,1.137714E3,6.5839883E3,2.3002516E4,-1.674393E4,-1.703787E3,2.0183025E4,1.9753139E0,8.559234E3,4.3883334E2,7.8092627E3,2.0876157E3,-2.0525393E3,-3.1230064E4,1.0553307E4,-8.909703E3,4.619664E3,5.404567E4,-1.4467318E4,1.8570028E3,2.9838938E3,2.4357657E2,3.7542188E2,-1.7794688E2,-1.2594208E4,9.076994E3,-1.4389522E4,-1.2079211E4,-9.364286E2,-2.0635508E4,1.4132991E4,-1.3183574E4,4.020169E3,1.8938156E4,-2.209336E3,-2.394078E4,-5.447203E3,5.6362646E3,-1.1562212E3,-4.8965796E3,-6.6655034E3,-4.365176E2,1.9309407E3,-1.5518645E3,-7.4441724E3,-1.2150469E3,-2.5671878E2,6.0898877E3,-6.619123E3,-8.606813E2,-4.2013823E3,3.576011E3,-1.6720979E4,-3.0606694E3,4.127195E3,-2.5993228E3,2.1076318E4,4.0584344E2],"categories":[],"categories_nodes":[],"categories_segments":[],"categories_sizes":[],"default_left":[0,0,0,0,0,0,0,0,0,0,0,0,0,0,0,0,0,0,0,0,0,0,0,0,0,0,0,0,0,0,0,0,0,0,0,0,0,0,0,0,0,0,0,0,0,0,0,0,0,0,0,0,0,0,0,0,0,0,0,0,0,0,0],"id":15,"left_children":[1,3,5,-1,7,9,11,13,15,17,19,21,23,25,27,-1,-1,29,31,-1,33,35,37,39,41,-1,-1,-1,-1,43,-1,-1,45,47,49,51,53,-1,-1,55,57,59,61,-1,-1,-1,-1,-1,-1,-1,-1,-1,-1,-1,-1,-1,-1,-1,-1,-1,-1,-1,-1],"loss_changes":[4.8069197E9,1.7279473E9,4.4355313E9,0E0,5.602656E8,1.4708731E9,4.996605E9,9.33495E7,1.3203968E7,4.1923277E9,3.2368356E9,6.6015427E9,5.9050307E9,5.640112E7,3.25798E6,0E0,0E0,4.1275784E9,2.6255176E9,0E0,9.156069E8,1.8800036E9,6.305372E8,2.850245E9,5.413581E9,0E0,0E0,0E0,0E0,2.3032154E8,0E0,0E0,6.139892E8,2.519396E8,1.7670067E8,6.6438054E8,3.0308333E8,0E0,0E0,2.1668526E9,5.546959E9,4.2587873E9,3.5610706E10,0E0,0E0,0E0,0E0,0E0,0E0,0E0,0E0,0E0,0E0,0E0,0E0,0E0,0E0,0E0,0E0,0E0,0E0,0E0,0E0],"parents":[2147483647,0,0,1,1,2,2,4,4,5,5,6,6,7,7,8,8,9,9,10,10,11,11,12,12,13,13,14,14,17,17,18,18,20,20,21,21,22,22,23,23,24,24,29,29,32,32,33,33,34,34,35,35,36,36,39,39,40,40,41,41,42,42],"right_children":[2,4,6,-1,8,10,12,14,16,18,20,22,24,26,28,-1,-1,30,32,-1,34,36,38,40,42,-1,-1,-1,-1,44,-1,-1,46,48,50,52,54,-1,-1,56,58,60,62,-1,-1,-1,-1,-1,-1,-1,-1,-1,-1,-1,-1,-1,-1,-1,-1,-1,-1,-1,-1],"split_conditions":[8.3E1,1.4E1,4.5E1,1.4518145E4,2.9E1,5.2E2,5.4E1,2.3E1,6.5E1,2.2E1,3.1E1,6.5E1,7.3E1,1.5E1,3.2E1,7.8092627E3,2.0876157E3,1.5E1,3.1E1,1.0553307E4,2.31E2,5E0,1.08E2,2.84E2,8.8E1,2.9838938E3,2.4357657E2,3.7542188E2,-1.7794688E2,1.32E2,9.076994E3,-1.4389522E4,1.32E2,8.8E1,4E2,4.9E1,8.9E1,4.020169E3,1.8938156E4,2.27E2,7E0,4.96E2,1.016E3,-1.1562212E3,-4.8965796E3,-6.6655034E3,-4.365176E2,1.9309407E3,-1.5518645E3,-7.4441724E3,-1.2150469E3,-2.5671878E2,6.0898877E3,-6.619123E3,-8.606813E2,-4.2013823E3,3.576011E3,-1.6720979E4,-3.0606694E3,4.127195E3,-2.5993228E3,2.1076318E4,4.0584344E2],"split_indices":[0,0,2,0,1,7,2,1,0,3,5,1,2,2,0,0,0,3,5,0,0,6,0,0,1,0,0,0,0,0,0,0,0,1,0,2,0,0,0,0,6,7,7,0,0,0,0,0,0,0,0,0,0,0,0,0,0,0,0,0,0,0,0],"split_type":[0,0,0,0,0,0,0,0,0,0,0,0,0,0,0,0,0,0,0,0,0,0,0,0,0,0,0,0,0,0,0,0,0,0,0,0,0,0,0,0,0,0,0,0,0,0,0,0,0,0,0,0,0,0,0,0,0,0,0,0,0,0,0],"sum_hessian":[2.7E2,1.1E1,2.59E2,1E0,1E1,2.9E1,2.3E2,7E0,3E0,1.9E1,1E1,1.2E1,2.18E2,5E0,2E0,2E0,1E0,1E1,9E0,1E0,9E0,9E0,3E0,2.4E1,1.94E2,4E0,1E0,1E0,1E0,8E0,2E0,4E0,5E0,6E0,3E0,6E0,3E0,1E0,2E0,1.1E1,1.3E1,6.6E1,1.28E2,3E0,5E0,2E0,3E0,2E0,4E0,2E0,1E0,2E0,4E0,1E0,2E0,6E0,5E0,3E0,1E1,9E0,5.7E1,7E0,1.21E2],"tree_param":{"num_deleted":"0","num_feature":"8","num_nodes":"63","size_leaf_vector":"1"}},{"base_weights":[5.2038293E2,3.373073E4,1.480728E2,1.2340426E4,2.8384033E3,-1.5035706E4,7.3149475E2,-2.0489584E4,-1.7324922E3,1.5124487E3,-1.1272582E4,-9.7996875E3,-7.817126E3,-1.1775719E3,7.2686255E2,-1.5781875E3,6.0862983E3,-1.3573299E4,-5.9915103E3,-3.593848E3,-4.8904105E2,9.0405E2,-1.4999992E4,3.5903785E4,-5.332271E2,5.6910156E2,-1.1803184E4,-5.085345E2,3.1202515E3,-1.04719795E4,-1.2327568E3,1.9575148E4,-2.078922E2,1.3492759E3,-2.33035E3,2.417044E3,-1.6604664E3,-6.0774707E3,-8.0355194E2],"categories":[],"categories_nodes":[],"categories_segments":[],"categories_sizes":[],"default_left":[0,0,0,0,0,0,0,0,0,0,0,0,0,0,0,0,0,0,0,0,0,0,0,0,0,0,0,0,0,0,0,0,0,0,0,0,0,0,0],"id":16,"left_children":[1,3,5,-1,-1,7,9,11,13,15,17,19,-1,-1,-1,21,23,-1,25,-1,-1,27,29,31,33,35,37,-1,-1,-1,-1,-1,-1,-1,-1,-1,-1,-1,-1],"loss_changes":[3.345798E9,1.498834E8,2.3939484E9,0E0,0E0,6.9004314E8,2.4544535E9,1.6126054E8,4.595705E7,3.472951E9,2.5994337E9,5.1703904E7,0E0,0E0,0E0,4.9110287E9,1.9559526E10,0E0,5.786391E8,0E0,0E0,3.1030953E9,4.842937E9,1.9377115E10,3.0194045E9,4.102328E8,5.629352E8,0E0,0E0,0E0,0E0,0E0,0E0,0E0,0E0,0E0,0E0,0E0,0E0],"parents":[2147483647,0,0,1,1,2,2,5,5,6,6,7,7,8,8,9,9,10,10,11,11,15,15,16,16,18,18,21,21,22,22,23,23,24,24,25,25,26,26],"right_children":[2,4,6,-1,-1,8,10,12,14,16,18,20,-1,-1,-1,22,24,-1,26,-1,-1,28,30,32,34,36,38,-1,-1,-1,-1,-1,-1,-1,-1,-1,-1,-1,-1],"split_conditions":[1.5E1,1.4E1,3E0,1.2340426E4,2.8384033E3,8E0,2.43E2,5E0,1.08E2,1.4E1,1.4E2,2.39E2,-7.817126E3,-1.1775719E3,7.2686255E2,1.62E2,1.6E1,-1.3573299E4,3.25E2,-3.593848E3,-4.8904105E2,1.05E2,7.6E1,1.11E2,1.87E2,1.65E2,3.91E2,-5.085345E2,3.1202515E3,-1.04719795E4,-1.2327568E3,1.9575148E4,-2.078922E2,1.3492759E3,-2.33035E3,2.417044E3,-1.6604664E3,-6.0774707E3,-8.0355194E2],"split_indices":[0,0,3,0,0,1,1,2,0,6,3,0,0,0,0,2,6,0,3,0,0,2,5,5,3,5,3,0,0,0,0,0,0,0,0,0,0,0,0],"split_type":[0,0,0,0,0,0,0,0,0,0,0,0,0,0,0,0,0,0,0,0,0,0,0,0,0,0,0,0,0,0,0,0,0,0,0,0,0,0,0],"sum_hessian":[2.7E2,2E0,2.68E2,1E0,1E0,9E0,2.59E2,6E0,3E0,2.44E2,1.5E1,3E0,3E0,2E0,1E0,1.46E2,9.8E1,1E0,1.4E1,2E0,1E0,1.24E2,2.2E1,1.7E1,8.1E1,7E0,7E0,9.8E1,2.6E1,7E0,1.5E1,9E0,8E0,4.8E1,3.3E1,3E0,4E0,3E0,4E0],"tree_param":{"num_deleted":"0","num_feature":"8","num_nodes":"39","size_leaf_vector":"1"}},{"base_weights":[3.3631372E2,1.5522255E4,-3.658694E2,1.0489369E4,1.0576176E4,-8.624997E3,6.28214E2,5.063539E3,5.687222E3,-4.9435327E2,-1.150649E4,1.3965955E4,-1.2616528E3,6.3953647E3,7.120417E2,-1.7760342E4,6.644251E3,-4.92631E3,2.9623814E4,-2.3790586E4,1.3839282E2,2.1890024E3,2.833219E2,3.9539066E2,-7.497188E1,-1.2021969E3,-2.2460084E4,-1.598112E2,1.9145E4,2.5112969E3,-1.8816262E4,3.7687312E4,4.3466562E3,-5.424129E3,-4.84188E4,1.8157012E4,-9.395593E2,-7.963909E3,-9.1724536E2,3.3849414E3,-2.1875034E3,7.536688E3,-1.6112203E3,-3.091354E3,3.8317769E3,-1.6586532E3,-6.226772E3,1.6290479E4,5.4187793E3,2.7476204E3,-2.2352485E3,-4.867039E3,2.8293213E3,-2.736211E3,-1.6788945E4,-2.0176759E3,1.9014887E4,-1.5256987E3,1.3186294E3],"categories":[],"categories_nodes":[],"categories_segments":[],"categories_sizes":[],"default_left":[0,0,0,0,0,0,0,0,0,0,0,0,0,0,0,0,0,0,0,0,0,0,0,0,0,0,0,0,0,0,0,0,0,0,0,0,0,0,0,0,0,0,0,0,0,0,0,0,0,0,0,0,0,0,0,0,0,0,0],"id":17,"left_children":[1,3,5,-1,7,9,11,13,-1,15,-1,17,19,21,23,25,27,29,31,33,35,-1,-1,-1,-1,-1,37,39,41,43,45,47,49,51,53,55,57,-1,-1,-1,-1,-1,-1,-1,-1,-1,-1,-1,-1,-1,-1,-1,-1,-1,-1,-1,-1,-1,-1],"loss_changes":[2.8954365E9,7.841669E8,2.1400863E9,0E0,4.1223795E8,6.749304E9,5.8907474E9,4.180973E7,0E0,2.9528704E9,0E0,8.724496E9,6.469307E9,2.2586992E7,2.0779795E6,3.624448E8,1.4490094E9,1.4935653E9,3.097343E9,5.165367E9,3.785162E9,0E0,0E0,0E0,0E0,0E0,3.152571E8,1.0615879E9,1.0141517E9,1.4466829E9,1.410816E7,2.9317786E9,3.5209226E8,1.4364146E9,9.7196954E8,1.2805016E10,4.092327E9,0E0,0E0,0E0,0E0,0E0,0E0,0E0,0E0,0E0,0E0,0E0,0E0,0E0,0E0,0E0,0E0,0E0,0E0,0E0,0E0,0E0,0E0],"parents":[2147483647,0,0,1,1,2,2,4,4,5,5,6,6,7,7,9,9,11,11,12,12,13,13,14,14,15,15,16,16,17,17,18,18,19,19,20,20,26,26,27,27,28,28,29,29,30,30,31,31,32,32,33,33,34,34,35,35,36,36],"right_children":[2,4,6,-1,8,10,12,14,-1,16,-1,18,20,22,24,26,28,30,32,34,36,-1,-1,-1,-1,-1,38,40,42,44,46,48,50,52,54,56,58,-1,-1,-1,-1,-1,-1,-1,-1,-1,-1,-1,-1,-1,-1,-1,-1,-1,-1,-1,-1,-1,-1],"split_conditions":[8.3E1,1.4E1,4.03E2,1.0489369E4,2.9E1,3.31E2,2.59E2,2.3E1,5.687222E3,1.15E2,-1.150649E4,2.14E2,3.01E2,1.5E1,3.2E1,1.3E1,1.9E1,1.09E2,1E1,2.84E2,3.53E2,2.1890024E3,2.833219E2,3.9539066E2,-7.497188E1,-1.2021969E3,4.7E1,1.33E2,3.3E1,5.9E1,1E0,3.1E1,2.4E2,2.72E2,3.9E1,1.3E1,1.31E2,-7.963909E3,-9.1724536E2,3.3849414E3,-2.1875034E3,7.536688E3,-1.6112203E3,-3.091354E3,3.8317769E3,-1.6586532E3,-6.226772E3,1.6290479E4,5.4187793E3,2.7476204E3,-2.2352485E3,-4.867039E3,2.8293213E3,-2.736211E3,-1.6788945E4,-2.0176759E3,1.9014887E4,-1.5256987E3,1.3186294E3],"split_indices":[0,0,7,0,1,7,0,1,0,0,0,0,0,2,0,2,1,1,6,0,0,0,0,0,0,0,2,0,1,1,6,5,0,0,1,6,1,0,0,0,0,0,0,0,0,0,0,0,0,0,0,0,0,0,0,0,0,0,0],"split_type":[0,0,0,0,0,0,0,0,0,0,0,0,0,0,0,0,0,0,0,0,0,0,0,0,0,0,0,0,0,0,0,0,0,0,0,0,0,0,0,0,0,0,0,0,0,0,0,0,0,0,0,0,0,0,0,0,0,0,0],"sum_hessian":[2.7E2,1.1E1,2.59E2,1E0,1E1,2.7E1,2.32E2,7E0,3E0,2.2E1,5E0,2.8E1,2.04E2,5E0,2E0,6E0,1.6E1,1.3E1,1.5E1,1.1E1,1.93E2,4E0,1E0,1E0,1E0,2E0,4E0,1.1E1,5E0,9E0,4E0,1.1E1,4E0,7E0,4E0,1E1,1.83E2,3E0,1E0,4E0,7E0,4E0,1E0,4E0,5E0,1E0,3E0,5E0,6E0,3E0,1E0,4E0,3E0,1E0,3E0,7E0,3E0,1.03E2,8E1],"tree_param":{"num_deleted":"0","num_feature":"8","num_nodes":"59","size_leaf_vector":"1"}},{"base_weights":[2.900544E2,1.1400132E3,-9.381753E3,1.8983073E2,1.8447969E4,-1.2891497E4,-3.8741797E3,7.014751E2,-2.9916734E4,1.5074826E4,8.0977583E3,-5.86175E3,5.541539E3,3.6172742E2,1.2030366E4,-2.553919E3,-1.0264082E4,-6.8785786E3,1.3493253E4,9.332438E2,-7.265479E3,-1.6727251E3,3.3317659E3,1.4385822E3,-9.120692E3,2.3267094E4,5.9805938E3,-5.0171816E3,-4.523875E3,-3.9128763E2,2.370859E3,-5.084849E3,1.0603754E3,7.9748975E3,1.997911E3,-1.5350626E2,2.1443767E3,-4.7198953E2,-4.1504097E3],"categories":[],"categories_nodes":[],"categories_segments":[],"categories_sizes":[],"default_left":[0,0,0,0,0,0,0,0,0,0,0,0,0,0,0,0,0,0,0,0,0,0,0,0,0,0,0,0,0,0,0,0,0,0,0,0,0,0,0],"id":18,"left_children":[1,3,5,7,9,-1,11,13,15,-1,17,19,21,23,-1,-1,-1,-1,25,-1,27,-1,-1,29,31,33,35,-1,37,-1,-1,-1,-1,-1,-1,-1,-1,-1,-1],"loss_changes":[2.2384883E9,4.107927E9,3.9034952E9,3.6871032E9,3.872064E9,0E0,4.0677117E8,3.131198E9,7.661235E7,0E0,2.1508088E9,2.3671738E8,3.093654E8,2.4025388E9,0E0,0E0,0E0,0E0,5.9512435E8,0E0,3.133132E8,0E0,0E0,3.751487E9,2.4377262E9,4.323891E7,5.670784E7,0E0,3.353738E8,0E0,0E0,0E0,0E0,0E0,0E0,0E0,0E0,0E0,0E0],"parents":[2147483647,0,0,1,1,2,2,3,3,4,4,6,6,7,7,8,8,10,10,11,11,12,12,13,13,18,18,20,20,23,23,24,24,25,25,26,26,28,28],"right_children":[2,4,6,8,10,-1,12,14,16,-1,18,20,22,24,-1,-1,-1,-1,26,-1,28,-1,-1,30,32,34,36,-1,38,-1,-1,-1,-1,-1,-1,-1,-1,-1,-1],"split_conditions":[2.28E2,1.9E2,8.6E1,1.83E2,1.01E2,-1.2891497E4,3.33E2,1.81E2,2.03E2,1.5074826E4,2.72E2,1.323E3,2.39E2,1.89E3,1.2030366E4,-2.553919E3,-1.0264082E4,-6.8785786E3,2.08E2,9.332438E2,1.5E1,-1.6727251E3,3.3317659E3,1.4E1,3.63E2,1.136E3,1.03E2,-5.0171816E3,1.324E3,-3.9128763E2,2.370859E3,-5.084849E3,1.0603754E3,7.9748975E3,1.997911E3,-1.5350626E2,2.1443767E3,-4.7198953E2,-4.1504097E3],"split_indices":[1,1,5,1,5,0,2,1,0,0,0,7,1,7,0,0,0,0,1,0,6,0,0,6,2,0,3,0,0,0,0,0,0,0,0,0,0,0,0],"split_type":[0,0,0,0,0,0,0,0,0,0,0,0,0,0,0,0,0,0,0,0,0,0,0,0,0,0,0,0,0,0,0,0,0,0,0,0,0,0,0],"sum_hessian":[2.7E2,2.49E2,2.1E1,2.37E2,1.2E1,2E0,1.9E1,2.34E2,3E0,2E0,1E1,1.6E1,3E0,2.33E2,1E0,1E0,2E0,1E0,9E0,2E0,1.4E1,1E0,2E0,2.1E2,2.3E1,3E0,6E0,2E0,1.2E1,1.48E2,6.2E1,1.4E1,9E0,2E0,1E0,1E0,5E0,1E1,2E0],"tree_param":{"num_deleted":"0","num_feature":"8","num_nodes":"39","size_leaf_vector":"1"}},{"base_weights":[1.9340468E2,1.4218766E4,-3.4265262E2,7.5358945E3,8.1900503E3,3.2270605E2,-9.379887E3,1.1937094E4,2.5077563E3,-1.2134181E3,5.079312E3,-6.499798E3,-5.4782666E3,3.9478128E2,4.51165E3,9.4292114E2,-5.025E0,1.0897234E3,-1.0212225E4,2.2126115E4,3.5665073E2,-1.2481339E4,5.772639E2,-3.8196707E2,1.7923354E4,-2.4022682E4,-2.06988E3,3.6250403E3,3.7466316E4,-1.9521082E4,2.6073782E3,4.3288596E2,-1.5042547E4,6.217775E3,-5.1787E3,-5.2727484E2,4.6979766E3,7.9302754E3,-1.7121012E3,-9.042476E3,-2.0941013E3,1.6123254E3,-4.132131E3,-1.3511626E3,1.7191517E3,1.6222317E4,3.4474993E3,-2.66389E3,-9.313031E3,1.7123795E4,-4.036664E2,-1.3527141E3,-4.8742314E3,4.967344E2,2.0832986E3,-2.1933845E3,5.0274377E2],"categories":[],"categories_nodes":[],"categories_segments":[],"categories_sizes":[],"default_left":[0,0,0,0,0,0,0,0,0,0,0,0,0,0,0,0,0,0,0,0,0,0,0,0,0,0,0,0,0,0,0,0,0,0,0,0,0,0,0,0,0,0,0,0,0,0,0,0,0,0,0,0,0,0,0,0,0],"id":19,"left_children":[1,3,5,7,-1,9,11,13,15,17,19,-1,21,-1,-1,-1,-1,23,25,27,29,31,33,35,37,39,41,43,45,47,49,-1,51,53,55,-1,-1,-1,-1,-1,-1,-1,-1,-1,-1,-1,-1,-1,-1,-1,-1,-1,-1,-1,-1,-1,-1],"loss_changes":[2.0423578E9,6.684819E8,1.5784335E9,1.471034E8,0E0,1.796314E9,7.4415104E8,1.1198605E8,8.071916E6,3.8660756E9,4.8224855E9,0E0,6.4331475E8,0E0,0E0,0E0,0E0,3.698156E9,4.2233567E9,3.5537157E9,2.1983882E9,2.713467E8,3.243992E8,3.0728343E9,2.5642468E9,1.2495283E9,2.2522068E9,1.456155E8,2.3983176E9,3.374185E8,9.551055E9,0E0,2.889984E6,5.074352E6,8.534134E7,0E0,0E0,0E0,0E0,0E0,0E0,0E0,0E0,0E0,0E0,0E0,0E0,0E0,0E0,0E0,0E0,0E0,0E0,0E0,0E0,0E0,0E0],"parents":[2147483647,0,0,1,1,2,2,3,3,5,5,6,6,7,7,8,8,9,9,10,10,12,12,17,17,18,18,19,19,20,20,21,21,22,22,23,23,24,24,25,25,26,26,27,27,28,28,29,29,30,30,32,32,33,33,34,34],"right_children":[2,4,6,8,-1,10,12,14,16,18,20,-1,22,-1,-1,-1,-1,24,26,28,30,32,34,36,38,40,42,44,46,48,50,-1,52,54,56,-1,-1,-1,-1,-1,-1,-1,-1,-1,-1,-1,-1,-1,-1,-1,-1,-1,-1,-1,-1,-1,-1],"split_conditions":[6.5E1,4E1,3.25E2,8E0,8.1900503E3,1.38E2,3.91E2,4E0,2.3E1,2.13E2,1.49E2,-6.499798E3,8.4E1,3.9478128E2,4.51165E3,9.4292114E2,-5.025E0,1.77E2,8.57E2,1.45E2,7.3E1,5.25E2,2.382E3,8.7E1,7.1E1,1.9E1,2.2E1,1.96E2,9.8E1,5.49E2,7.9E1,4.3288596E2,6.67E2,2.09E2,2.78E2,-5.2727484E2,4.6979766E3,7.9302754E3,-1.7121012E3,-9.042476E3,-2.0941013E3,1.6123254E3,-4.132131E3,-1.3511626E3,1.7191517E3,1.6222317E4,3.4474993E3,-2.66389E3,-9.313031E3,1.7123795E4,-4.036664E2,-1.3527141E3,-4.8742314E3,4.967344E2,2.0832986E3,-2.1933845E3,5.0274377E2],"split_indices":[0,3,3,4,0,1,0,4,1,2,1,0,4,0,0,0,0,2,0,1,5,0,7,4,4,6,6,0,5,0,5,0,0,1,1,0,0,0,0,0,0,0,0,0,0,0,0,0,0,0,0,0,0,0,0,0,0],"split_type":[0,0,0,0,0,0,0,0,0,0,0,0,0,0,0,0,0,0,0,0,0,0,0,0,0,0,0,0,0,0,0,0,0,0,0,0,0,0,0,0,0,0,0,0,0,0,0,0,0,0,0,0,0,0,0,0,0],"sum_hessian":[2.7E2,9E0,2.61E2,7E0,2E0,2.44E2,1.7E1,3E0,4E0,1.85E2,5.9E1,3E0,1.4E1,1E0,2E0,3E0,1E0,1.48E2,3.7E1,1.2E1,4.7E1,6E0,8E0,1.37E2,1.1E1,1.3E1,2.4E1,6E0,6E0,4E0,4.3E1,1E0,5E0,4E0,4E0,1.27E2,1E1,8E0,3E0,9E0,4E0,1.5E1,9E0,1E0,5E0,3E0,3E0,3E0,1E0,2E0,4.1E1,1E0,4E0,1E0,3E0,3E0,1E0],"tree_param":{"num_deleted":"0","num_feature":"8","num_nodes":"57","size_leaf_vector":"1"}},{"base_weights":[2.2447104E2,1.409442E4,-1.4275201E2,3.6605E3,2.1004734E4,4.3472342E2,-6.5409907E3,1.46625E3,4.8670004E2,9.089532E2,7.7959253E3,-2.9474133E2,1.3419423E4,-1.0232466E4,-2.078857E3,1.905776E3,-4.343319E3,-1.3013719E4,1.9408514E4,-3.952103E3,2.9507344E3,-7.400539E2,9.022395E3,-2.4974135E4,-1.7754722E3,-5.7862407E3,-6.9932816E1,1.2891319E4,1.2755153E4,-1.3412401E3,-8.905581E3,2.4974438E3,-1.8175078E3,3.690732E2,-4.706311E3,2.02718E4,1.2861552E3,-2.847325E3,-8.4126E3,-4.0945703E3,2.3541853E1,4.710196E3,1.9463126E2,9.321694E2,-1.2981342E3,-3.433505E3,1.8782344E2,-1.0118907E3,4.2733127E2],"categories":[],"categories_nodes":[],"categories_segments":[],"categories_sizes":[],"default_left":[0,0,0,0,0,0,0,0,0,0,0,0,0,0,0,0,0,0,0,0,0,0,0,0,0,0,0,0,0,0,0,0,0,0,0,0,0,0,0,0,0,0,0,0,0,0,0,0,0],"id":20,"left_children":[1,3,5,7,9,11,13,-1,-1,-1,-1,15,17,-1,19,21,23,25,27,29,31,33,35,37,39,-1,-1,-1,41,43,45,-1,47,-1,-1,-1,-1,-1,-1,-1,-1,-1,-1,-1,-1,-1,-1,-1,-1],"loss_changes":[1.3823139E9,4.27824E8,9.8197235E8,2.074168E6,2.79446E8,2.315094E9,2.6352845E9,0E0,0E0,0E0,0E0,2.0751574E9,2.3106135E9,0E0,2.0009485E8,2.8499105E9,4.2997545E9,2.3605098E8,1.1763689E9,1.8204826E8,1.6887986E8,3.2883965E9,1.1077466E10,1.6134963E8,1.6299639E9,0E0,0E0,0E0,3.464073E8,1.5955365E8,1.2819059E8,0E0,2.497546E7,0E0,0E0,0E0,0E0,0E0,0E0,0E0,0E0,0E0,0E0,0E0,0E0,0E0,0E0,0E0,0E0],"parents":[2147483647,0,0,1,1,2,2,3,3,4,4,5,5,6,6,11,11,12,12,14,14,15,15,16,16,17,17,18,18,19,19,20,20,21,21,22,22,23,23,24,24,28,28,29,29,30,30,32,32],"right_children":[2,4,6,8,10,12,14,-1,-1,-1,-1,16,18,-1,20,22,24,26,28,30,32,34,36,38,40,-1,-1,-1,42,44,46,-1,48,-1,-1,-1,-1,-1,-1,-1,-1,-1,-1,-1,-1,-1,-1,-1,-1],"split_conditions":[4.9E1,2.7E1,2.28E2,1.5E1,1E0,1.9E2,8.6E1,1.46625E3,4.8670004E2,9.089532E2,7.7959253E3,1.305E3,1.1E1,-1.0232466E4,2.55E2,9.8E1,1.391E3,2.72E2,7.8E1,1.05E2,3.88E2,8.2E1,1E2,9E0,4.2E1,-5.7862407E3,-6.9932816E1,1.2891319E4,1.49E2,7.27E2,2.79E2,2.4974438E3,2.56E2,3.690732E2,-4.706311E3,2.02718E4,1.2861552E3,-2.847325E3,-8.4126E3,-4.0945703E3,2.3541853E1,4.710196E3,1.9463126E2,9.321694E2,-1.2981342E3,-3.433505E3,1.8782344E2,-1.0118907E3,4.2733127E2],"split_indices":[0,3,1,0,6,1,5,0,0,0,0,7,6,0,2,1,7,0,5,4,3,1,1,6,4,0,0,0,4,0,5,0,1,0,0,0,0,0,0,0,0,0,0,0,0,0,0,0,0],"split_type":[0,0,0,0,0,0,0,0,0,0,0,0,0,0,0,0,0,0,0,0,0,0,0,0,0,0,0,0,0,0,0,0,0,0,0,0,0,0,0,0,0,0,0,0,0,0,0,0,0],"sum_hessian":[2.7E2,6E0,2.64E2,3E0,3E0,2.43E2,2.1E1,1E0,2E0,1E0,2E0,2.31E2,1.2E1,2E0,1.9E1,1.5E2,8.1E1,2E0,1E1,1.4E1,5E0,1.1E2,4E1,8E0,7.3E1,1E0,1E0,1E0,9E0,1E1,4E0,2E0,3E0,9.8E1,1.2E1,2E0,3.8E1,2E0,6E0,9E0,6.4E1,7E0,2E0,4E0,6E0,3E0,1E0,2E0,1E0],"tree_param":{"num_deleted":"0","num_feature":"8","num_nodes":"49","size_leaf_vector":"1"}},{"base_weights":[2.0346918E2,-1.000904E4,5.9248303E2,-1.3595955E4,-1.2296797E3,1.8640318E4,2.4042232E2,-6.074086E3,-5.315651E3,-6.202157E2,1.9251564E2,6.8830316E2,6.6459683E3,1.7752208E3,-2.368042E3,-2.4262102E3,-5.136328E0,2.975057E2,1.8802895E4,-3.7831938E3,3.97446E3,-2.2778457E3,7.5010522E3,8.895625E2,2.4087938E4,-2.2713187E2,-7.424613E3,7.53075E3,-2.689817E3,-1.4899673E2,-5.123913E3,1.357627E4,2.4442902E2,-1.4473407E3,1.3207189E3,2.9287744E3,9.603324E3,-1.2723295E3,2.103945E3,-7.274358E3,-6.902823E2,3.5043389E3,-1.8480188E2,2.5706815E2,-2.3113188E3],"categories":[],"categories_nodes":[],"categories_segments":[],"categories_sizes":[],"default_left":[0,0,0,0,0,0,0,0,0,0,0,0,0,0,0,0,0,0,0,0,0,0,0,0,0,0,0,0,0,0,0,0,0,0,0,0,0,0,0,0,0,0,0,0,0],"id":21,"left_children":[1,3,5,7,9,11,13,15,-1,-1,-1,-1,-1,17,19,-1,-1,21,23,25,27,29,31,33,35,37,39,41,43,-1,-1,-1,-1,-1,-1,-1,-1,-1,-1,-1,-1,-1,-1,-1,-1],"loss_changes":[1.082561E9,2.9818957E8,1.6602491E9,1.0945664E8,7.5974055E6,2.3628237E8,1.03709824E9,4.863904E7,0E0,0E0,0E0,0E0,0E0,4.09582E9,8.76694E8,0E0,0E0,2.8183877E9,1.2093179E9,1.0212936E9,4.468582E8,2.9443896E9,1.0060275E10,1.0152898E8,8.225075E8,1.2212956E9,3.3058824E9,4.1294112E8,1.3109866E8,0E0,0E0,0E0,0E0,0E0,0E0,0E0,0E0,0E0,0E0,0E0,0E0,0E0,0E0,0E0,0E0],"parents":[2147483647,0,0,1,1,2,2,3,3,4,4,5,5,6,6,7,7,13,13,14,14,17,17,18,18,19,19,20,20,21,21,22,22,23,23,24,24,25,25,26,26,27,27,28,28],"right_children":[2,4,6,8,10,12,14,16,-1,-1,-1,-1,-1,18,20,-1,-1,22,24,26,28,30,32,34,36,38,40,42,44,-1,-1,-1,-1,-1,-1,-1,-1,-1,-1,-1,-1,-1,-1,-1,-1],"split_conditions":[3E0,8E0,8E0,5E0,1.08E2,5E0,1.17E2,2.39E2,-5.315651E3,-6.202157E2,1.9251564E2,6.8830316E2,6.6459683E3,1.05E2,1.23E2,-2.4262102E3,-5.136328E0,1.4E1,7.6E1,1.87E2,2.71E2,7E1,1.5E1,1.85E2,7.7E1,1.48E2,6.4E1,1.49E2,1.156E3,-1.4899673E2,-5.123913E3,1.357627E4,2.4442902E2,-1.4473407E3,1.3207189E3,2.9287744E3,9.603324E3,-1.2723295E3,2.103945E3,-7.274358E3,-6.902823E2,3.5043389E3,-1.8480188E2,2.5706815E2,-2.3113188E3],"split_indices":[3,1,1,2,0,3,5,0,0,0,0,0,0,5,4,0,0,6,2,3,5,4,6,0,1,3,4,4,0,0,0,0,0,0,0,0,0,0,0,0,0,0,0,0,0],"split_type":[0,0,0,0,0,0,0,0,0,0,0,0,0,0,0,0,0,0,0,0,0,0,0,0,0,0,0,0,0,0,0,0,0,0,0,0,0,0,0,0,0,0,0,0,0],"sum_hessian":[2.7E2,9E0,2.61E2,6E0,3E0,4E0,2.57E2,3E0,3E0,2E0,1E0,1E0,3E0,1.62E2,9.5E1,2E0,1E0,1.5E2,1.2E1,7.8E1,1.7E1,1.11E2,3.9E1,3E0,9E0,4E1,3.8E1,1.1E1,6E0,1E2,1.1E1,5E0,3.4E1,1E0,2E0,4E0,5E0,2.6E1,1.4E1,8E0,3E1,7E0,4E0,4E0,2E0],"tree_param":{"num_deleted":"0","num_feature":"8","num_nodes":"45","size_leaf_vector":"1"}},{"base_weights":[1.9499539E2,3.5521155E3,-8.815334E2,1.1340704E2,2.8468576E4,-1.3394139E4,3.1480753E2,1.0483268E3,-8.116791E3,-3.9990051E3,3.9957605E4,-2.2163472E3,-2.2114738E4,3.0586645E4,-5.0505185E2,2.4637198E2,7.013963E3,-1.795186E3,-4.3664064E0,1.981067E4,1.0409734E4,2.6980403E3,-3.8833408E3,-1.4363816E4,-9.688652E3,4.755425E4,-5.5925674E3,-5.4647466E3,1.4233749E3,1.7612479E3,-1.2923614E4,-6.788344E2,4.61645E3,-2.3487083E3,5.1864814E3,-1.310613E4,2.1350532E3,6.628575E3,1.8589688E4,4.3224863E3,-9.184319E3,1.6884986E4,-3.7733536E2,2.482855E3,-5.6555836E1,-4.558301E3,-1.6764344E3,-1.8309376E1,-1.0386094E3,7.066907E2,1.88655E3,-4.6098223E3,6.802969E1,-1.37158E3,6.9077144E3,-7.328269E3,-8.6036725E2,6.900767E3,-3.9640876E3,-3.5769412E3,1.308619E2],"categories":[],"categories_nodes":[],"categories_segments":[],"categories_sizes":[],"default_left":[0,0,0,0,0,0,0,0,0,0,0,0,0,0,0,0,0,0,0,0,0,0,0,0,0,0,0,0,0,0,0,0,0,0,0,0,0,0,0,0,0,0,0,0,0,0,0,0,0,0,0,0,0,0,0,0,0,0,0,0,0],"id":22,"left_children":[1,3,5,7,9,11,13,15,-1,17,19,21,23,25,27,29,-1,-1,-1,-1,31,33,-1,-1,35,37,-1,39,41,43,45,-1,-1,47,49,51,-1,-1,-1,53,55,57,59,-1,-1,-1,-1,-1,-1,-1,-1,-1,-1,-1,-1,-1,-1,-1,-1,-1,-1],"loss_changes":[9.8253523E8,5.651681E9,3.0879007E9,1.5270335E9,3.143958E9,1.7055729E9,4.706173E9,1.0329556E9,0E0,2.3639688E7,3.935876E9,5.0942397E8,2.7376502E9,5.062953E9,1.777194E9,1.1599628E9,0E0,0E0,0E0,0E0,2.8717712E8,1.0009129E8,0E0,0E0,5.5273344E8,9.845043E7,0E0,1.9327237E9,3.7371837E9,6.620958E8,1.5033536E7,0E0,0E0,7.429478E6,7.84816E5,2.1440563E8,0E0,0E0,0E0,2.6005873E9,3.5886935E9,2.8817725E9,1.1417527E9,0E0,0E0,0E0,0E0,0E0,0E0,0E0,0E0,0E0,0E0,0E0,0E0,0E0,0E0,0E0,0E0,0E0,0E0],"parents":[2147483647,0,0,1,1,2,2,3,3,4,4,5,5,6,6,7,7,9,9,10,10,11,11,12,12,13,13,14,14,15,15,20,20,21,21,24,24,25,25,27,27,28,28,29,29,30,30,33,33,34,34,35,35,39,39,40,40,41,41,42,42],"right_children":[2,4,6,8,10,12,14,16,-1,18,20,22,24,26,28,30,-1,-1,-1,-1,32,34,-1,-1,36,38,-1,40,42,44,46,-1,-1,48,50,52,-1,-1,-1,54,56,58,60,-1,-1,-1,-1,-1,-1,-1,-1,-1,-1,-1,-1,-1,-1,-1,-1,-1,-1],"split_conditions":[2.56E2,2.41E2,3.46E2,2.4E2,4.1E1,2.84E2,3.5E2,3.09E2,-8.116791E3,2.47E2,2.49E2,7.2E1,2.89E2,5.4E1,1.07E2,1.09E2,7.013963E3,-1.795186E3,-4.3664064E0,1.981067E4,4.5E1,2.62E2,-3.8833408E3,-1.4363816E4,1.29E2,9.5E1,-5.5925674E3,6.4E1,1.4E2,8.3E1,1.33E2,-6.788344E2,4.61645E3,2.59E2,2.75E2,1.25E2,2.1350532E3,6.628575E3,1.8589688E4,4.7E1,8.6E1,7.42E2,1.033E3,2.482855E3,-5.6555836E1,-4.558301E3,-1.6764344E3,-1.8309376E1,-1.0386094E3,7.066907E2,1.88655E3,-4.6098223E3,6.802969E1,-1.37158E3,6.9077144E3,-7.328269E3,-8.6036725E2,6.900767E3,-3.9640876E3,-3.5769412E3,1.308619E2],"split_indices":[0,0,0,0,3,0,0,3,0,0,0,1,0,5,2,1,0,0,0,0,1,0,0,0,2,1,0,1,2,0,1,0,0,0,0,1,0,0,0,1,5,0,7,0,0,0,0,0,0,0,0,0,0,0,0,0,0,0,0,0,0],"split_type":[0,0,0,0,0,0,0,0,0,0,0,0,0,0,0,0,0,0,0,0,0,0,0,0,0,0,0,0,0,0,0,0,0,0,0,0,0,0,0,0,0,0,0,0,0,0,0,0,0,0,0,0,0,0,0,0,0,0,0,0,0],"sum_hessian":[2.7E2,6.5E1,2.05E2,5.8E1,7E0,1.7E1,1.88E2,5.7E1,1E0,2E0,5E0,8E0,9E0,4E0,1.84E2,5.6E1,1E0,1E0,1E0,2E0,3E0,6E0,2E0,2E0,7E0,3E0,1E0,5.1E1,1.33E2,5.1E1,5E0,1E0,2E0,2E0,4E0,6E0,1E0,2E0,1E0,1.4E1,3.7E1,1.3E1,1.2E2,1.1E1,4E1,3E0,2E0,1E0,1E0,2E0,2E0,5E0,1E0,1E1,4E0,1E1,2.7E1,1.1E1,2E0,7E0,1.13E2],"tree_param":{"num_deleted":"0","num_feature":"8","num_nodes":"61","size_leaf_vector":"1"}},{"base_weights":[1.8956815E2,-5.947324E3,5.979509E2,-2.8394639E3,-3.8514893E3,4.1245034E3,-8.392075E2,-3.3382446E3,-3.2096237E2,1.732472E3,2.120779E4,-7.3948086E3,3.5044437E2,-1.3489713E3,8.610156E2,2.9496533E3,-1.1607647E4,-6.665052E2,1.4615185E4,-1.2047411E3,-2.2719385E4,1.8497344E4,-5.0444653E2,-8.4533124E2,-5.267757E2,7.573357E3,-6.4318286E3,-3.863772E3,8.659672E3,-1.6465832E4,3.354682E3,-2.5422773E3,-1.0295159E4,8.261457E3,-2.7365105E3,-7.80495E3,7.5426855E2,9.9784225E1,-5.3505005E2,6.274854E1,7.0016504E3,-5.1873555E3,3.0258047E2,3.308769E3,2.3265001E2,5.204531E2,-6.4349136E3,2.3729814E3,-1.8944829E3,-2.5528767E3,2.3039485E3,-1.3021454E3,7.071563E1,2.6241995E2,-5.492413E3,4.9292925E3,-1.7083205E2],"categories":[],"categories_nodes":[],"categories_segments":[],"categories_sizes":[],"default_left":[0,0,0,0,0,0,0,0,0,0,0,0,0,0,0,0,0,0,0,0,0,0,0,0,0,0,0,0,0,0,0,0,0,0,0,0,0,0,0,0,0,0,0,0,0,0,0,0,0,0,0,0,0,0,0,0,0],"id":23,"left_children":[1,3,5,7,-1,9,11,-1,13,15,17,19,21,23,-1,25,-1,27,-1,29,31,33,35,-1,37,39,41,-1,43,45,47,49,-1,-1,51,53,55,-1,-1,-1,-1,-1,-1,-1,-1,-1,-1,-1,-1,-1,-1,-1,-1,-1,-1,-1,-1],"loss_changes":[6.827368E8,3.276212E8,1.2958561E9,2.6778253E8,0E0,2.9871757E9,1.4219882E9,0E0,3.995593E7,3.3615992E9,5.448227E9,2.6287135E9,2.4139418E9,9.384433E6,0E0,2.868228E9,0E0,7.949188E8,0E0,1.5164548E9,1.7848387E9,1.4191624E9,1.3750858E9,0E0,8.15333E6,5.103521E9,1.7950019E9,0E0,6.6174816E7,4.9076173E8,7.987602E8,3.093461E8,0E0,0E0,1.532527E7,2.0216123E9,2.6655345E9,0E0,0E0,0E0,0E0,0E0,0E0,0E0,0E0,0E0,0E0,0E0,0E0,0E0,0E0,0E0,0E0,0E0,0E0,0E0,0E0],"parents":[2147483647,0,0,1,1,2,2,3,3,5,5,6,6,8,8,9,9,10,10,11,11,12,12,13,13,15,15,17,17,19,19,20,20,21,21,22,22,24,24,25,25,26,26,28,28,29,29,30,30,31,31,34,34,35,35,36,36],"right_children":[2,4,6,8,-1,10,12,-1,14,16,18,20,22,24,-1,26,-1,28,-1,30,32,34,36,-1,38,40,42,-1,44,46,48,50,-1,-1,52,54,56,-1,-1,-1,-1,-1,-1,-1,-1,-1,-1,-1,-1,-1,-1,-1,-1,-1,-1,-1,-1],"split_conditions":[9E0,3.14E2,5.4E1,2E0,-3.8514893E3,9.6E1,7.6E1,-3.3382446E3,1.4E1,9.5E1,1.2E1,7.1E1,8.1E1,2E0,8.610156E2,8.4E1,-1.1607647E4,1.36E2,1.4615185E4,2.8E1,8.1E1,7.13E2,9.2E1,-8.4533124E2,5E0,6E0,6.74E2,-3.863772E3,1.45E2,1.5E1,1.21E2,6.3E1,-1.0295159E4,8.261457E3,8.44E2,1.19E2,9.8E1,9.9784225E1,-5.3505005E2,6.274854E1,7.0016504E3,-5.1873555E3,3.0258047E2,3.308769E3,2.3265001E2,5.204531E2,-6.4349136E3,2.3729814E3,-1.8944829E3,-2.5528767E3,2.3039485E3,-1.3021454E3,7.071563E1,2.6241995E2,-5.492413E3,4.9292925E3,-1.7083205E2],"split_indices":[3,7,5,1,0,1,5,0,1,1,6,5,5,3,0,2,0,0,0,4,1,0,5,0,3,6,7,0,1,4,1,1,0,0,0,1,5,0,0,0,0,0,0,0,0,0,0,0,0,0,0,0,0,0,0,0,0],"split_type":[0,0,0,0,0,0,0,0,0,0,0,0,0,0,0,0,0,0,0,0,0,0,0,0,0,0,0,0,0,0,0,0,0,0,0,0,0,0,0,0,0,0,0,0,0,0,0,0,0,0,0,0,0,0,0,0,0],"sum_hessian":[2.7E2,1.6E1,2.54E2,1.2E1,4E0,7.3E1,1.81E2,2E0,1E1,6.5E1,8E0,2.7E1,1.54E2,8E0,2E0,6.4E1,1E0,5E0,3E0,2E1,7E0,6E0,1.48E2,2E0,6E0,4.3E1,2.1E1,2E0,3E0,4E0,1.6E1,3E0,4E0,4E0,2E0,2.1E1,1.27E2,4E0,2E0,3E1,1.3E1,8E0,1.3E1,2E0,1E0,1E0,3E0,1.1E1,5E0,2E0,1E0,1E0,1E0,1.2E1,9E0,9E0,1.18E2],"tree_param":{"num_deleted":"0","num_feature":"8","num_nodes":"57","size_leaf_vector":"1"}},{"base_weights":[8.780897E1,5.1980254E3,-4.021211E1,3.535008E2,-5.259972E3,-4.0030438E2,5.198496E3,-1.1057334E4,1.0633875E3,9.3493274E2,-7.4465493E3,1.757741E4,3.8990623E1,-3.7533542E3,-5.2831934E3,-4.3926562E3,5.4328594E3,-1.0463011E2,1.3639924E4,-1.2721464E4,5.218852E3,1.7784844E3,7.228293E3,-1.0202096E4,5.4584487E3,-1.6319025E3,7.0173755E2,-5.4586406E3,-1.9307814E1,2.3243508E3,5.352708E2,1.9956442E2,-4.2363867E3,9.006087E3,1.2257251E3,-5.4729614E2,-5.057367E3,2.9754883E3,3.349674E2,-1.08235E3,2.6906157E3,-7.099179E3,1.4184297E2,2.6629363E3,-1.3560168E3,-4.2291565E2,-1.9015126E3,-1.25751564E2,3.6662344E2],"categories":[],"categories_nodes":[],"categories_segments":[],"categories_sizes":[],"default_left":[0,0,0,0,0,0,0,0,0,0,0,0,0,0,0,0,0,0,0,0,0,0,0,0,0,0,0,0,0,0,0,0,0,0,0,0,0,0,0,0,0,0,0,0,0,0,0,0,0],"id":24,"left_children":[1,-1,3,5,7,9,11,13,15,17,19,21,23,25,-1,27,29,31,33,35,37,39,-1,41,43,-1,-1,45,-1,-1,47,-1,-1,-1,-1,-1,-1,-1,-1,-1,-1,-1,-1,-1,-1,-1,-1,-1,-1],"loss_changes":[5.987796E8,0E0,5.5673286E8,9.22431E8,7.082756E8,2.0674033E9,2.1708628E9,4.125532E8,2.6226496E8,2.44484E9,2.4047032E9,9.867487E8,1.443216E9,7.436732E7,0E0,2.2718176E7,6.387963E7,1.8653857E9,2.0683566E9,1.0961267E9,2.0098902E8,1.8727318E8,0E0,1.3045228E9,6.19934E8,0E0,0E0,5.312576E6,0E0,0E0,2.4788155E6,0E0,0E0,0E0,0E0,0E0,0E0,0E0,0E0,0E0,0E0,0E0,0E0,0E0,0E0,0E0,0E0,0E0,0E0],"parents":[2147483647,0,0,2,2,3,3,4,4,5,5,6,6,7,7,8,8,9,9,10,10,11,11,12,12,13,13,15,15,16,16,17,17,18,18,19,19,20,20,21,21,23,23,24,24,27,27,30,30],"right_children":[2,-1,4,6,8,10,12,14,16,18,20,22,24,26,-1,28,30,32,34,36,38,40,-1,42,44,-1,-1,46,-1,-1,48,-1,-1,-1,-1,-1,-1,-1,-1,-1,-1,-1,-1,-1,-1,-1,-1,-1,-1],"split_conditions":[1.4E1,5.1980254E3,1.357E3,1.038E3,3.22E2,2.18E2,1.85E3,2.47E2,1.458E3,1.77E2,1E2,5.2E1,2.1E2,1.499E3,-5.2831934E3,1.448E3,1.734E3,8.45E2,1.84E2,4.5E1,1.17E2,1.116E3,7.228293E3,1.978E3,2.9E2,-1.6319025E3,7.0173755E2,3.97E2,-1.9307814E1,2.3243508E3,2.059E3,1.9956442E2,-4.2363867E3,9.006087E3,1.2257251E3,-5.4729614E2,-5.057367E3,2.9754883E3,3.349674E2,-1.08235E3,2.6906157E3,-7.099179E3,1.4184297E2,2.6629363E3,-1.3560168E3,-4.2291565E2,-1.9015126E3,-1.25751564E2,3.6662344E2],"split_indices":[0,0,0,0,2,2,7,2,0,2,4,4,2,0,0,0,0,0,2,4,4,0,0,7,3,0,0,2,0,0,0,0,0,0,0,0,0,0,0,0,0,0,0,0,0,0,0,0,0],"split_type":[0,0,0,0,0,0,0,0,0,0,0,0,0,0,0,0,0,0,0,0,0,0,0,0,0,0,0,0,0,0,0,0,0,0,0,0,0,0,0,0,0,0,0,0,0,0,0,0,0],"sum_hessian":[2.7E2,1E0,2.69E2,2.51E2,1.8E1,2.18E2,3.3E1,9E0,9E0,1.84E2,3.4E1,9E0,2.4E1,5E0,4E0,4E0,5E0,1.71E2,1.3E1,2.4E1,1E1,3E0,6E0,8E0,1.6E1,4E0,1E0,3E0,1E0,3E0,2E0,1.63E2,8E0,4E0,9E0,7E0,1.7E1,4E0,6E0,2E0,1E0,3E0,5E0,1.2E1,4E0,1E0,2E0,1E0,1E0],"tree_param":{"num_deleted":"0","num_feature":"8","num_nodes":"49","size_leaf_vector":"1"}},{"base_weights":[8.468805E1,-2.8627112E3,6.686012E2,1.2176422E3,-1.7265713E4,1.3320948E4,-2.2554814E2,-4.7985547E3,6.2705273E3,-3.068125E4,-3.2084792E3,2.464235E4,-1.4250325E4,-6.05508E3,1.2845986E3,-2.7302908E3,-3.2513518E3,1.2971427E4,-3.360731E3,-4.4906253E2,-1.12809375E4,6.1734375E2,-1.582718E3,9.662676E3,1.4532333E4,-5.544678E3,-1.5804845E3,-3.4914116E3,-1.9107125E4,9.909218E3,-3.4143826E2,-2.710508E3,-9.265827E2,1.5566685E4,-2.336461E3,-6.1208345E3,1.319873E3,-1.3464844E2,4.1245316E2,4.897135E3,2.4012563E3,-1.4511984E4,-1.3818708E3,-6.7432095E3,-2.1363064E3,1.9831953E3,2.8485621E4,-6.032591E3,7.858308E1,1.1694639E2,-8.542538E2,-1.0197516E3,5.3409565E3,2.208945E3,-1.9692574E3,-5.3271094E2,1.1668267E3,-4.7296875E1,-8.644128E3,-2.4853518E3,3.4750577E2,5.3329126E3,-2.2775366E2,1.0676511E4,-3.1850393E3,2.1630308E3,-1.5489166E2],"categories":[],"categories_nodes":[],"categories_segments":[],"categories_sizes":[],"default_left":[0,0,0,0,0,0,0,0,0,0,0,0,0,0,0,0,0,0,0,0,0,0,0,0,0,0,0,0,0,0,0,0,0,0,0,0,0,0,0,0,0,0,0,0,0,0,0,0,0,0,0,0,0,0,0,0,0,0,0,0,0,0,0,0,0,0,0],"id":25,"left_children":[1,3,5,7,9,11,13,15,17,19,21,23,25,27,29,31,-1,33,35,-1,-1,37,-1,39,-1,-1,-1,41,43,45,47,-1,49,51,-1,-1,53,-1,-1,-1,55,57,59,-1,-1,61,63,-1,65,-1,-1,-1,-1,-1,-1,-1,-1,-1,-1,-1,-1,-1,-1,-1,-1,-1,-1],"loss_changes":[4.683118E8,2.6656435E9,2.5710753E9,1.1244589E9,1.7874135E9,5.0333435E9,1.882913E9,1.827537E8,1.3343553E9,9.537654E8,5.0710464E7,3.4534031E9,9.268742E7,1.4055782E9,2.3874545E9,1.5083494E8,0E0,7.677558E8,7.4483283E8,0E0,0E0,3.039944E6,0E0,3.4775507E8,0E0,0E0,0E0,8.6338355E8,1.2271027E8,3.9189059E9,1.197161E9,0E0,3.145466E7,5.2710502E8,0E0,0E0,4.294978E8,0E0,0E0,0E0,3.79865E7,1.2272116E9,5.8822605E8,0E0,0E0,8.797116E8,2.5997102E9,0E0,6.061518E8,0E0,0E0,0E0,0E0,0E0,0E0,0E0,0E0,0E0,0E0,0E0,0E0,0E0,0E0,0E0,0E0,0E0,0E0],"parents":[2147483647,0,0,1,1,2,2,3,3,4,4,5,5,6,6,7,7,8,8,9,9,10,10,11,11,12,12,13,13,14,14,15,15,17,17,18,18,21,21,23,23,27,27,28,28,29,29,30,30,32,32,33,33,36,36,40,40,41,41,42,42,45,45,46,46,48,48],"right_children":[2,4,6,8,10,12,14,16,18,20,22,24,26,28,30,32,-1,34,36,-1,-1,38,-1,40,-1,-1,-1,42,44,46,48,-1,50,52,-1,-1,54,-1,-1,-1,56,58,60,-1,-1,62,64,-1,66,-1,-1,-1,-1,-1,-1,-1,-1,-1,-1,-1,-1,-1,-1,-1,-1,-1,-1],"split_conditions":[1.5E1,1.3E1,2.2E1,9E0,8.5E1,8.4E1,7.8E1,2.5E2,2.2E1,5E1,4E0,2.28E2,2.89E2,7.1E1,1.016E3,2E0,-3.2513518E3,3.3E1,2.4E1,-4.4906253E2,-1.12809375E4,2.62E2,-1.582718E3,1.08E2,1.4532333E4,-5.544678E3,-1.5804845E3,3.5E1,1.29E2,8.4E1,1.033E3,-2.710508E3,4E0,4E0,-2.336461E3,-6.1208345E3,1.21E2,-1.3464844E2,4.1245316E2,4.897135E3,1E1,3.7E1,3E1,-6.7432095E3,-2.1363064E3,4.3E1,1.13E2,-6.032591E3,7.4E1,1.1694639E2,-8.542538E2,-1.0197516E3,5.3409565E3,2.208945E3,-1.9692574E3,-5.3271094E2,1.1668267E3,-4.7296875E1,-8.644128E3,-2.4853518E3,3.4750577E2,5.3329126E3,-2.2775366E2,1.0676511E4,-3.1850393E3,2.1630308E3,-1.5489166E2],"split_indices":[4,4,5,3,2,2,2,0,3,0,6,0,0,2,7,1,0,1,3,0,0,0,0,0,0,0,0,5,3,1,7,0,4,4,0,0,0,0,0,0,5,2,4,0,0,5,5,0,3,0,0,0,0,0,0,0,0,0,0,0,0,0,0,0,0,0,0],"split_type":[0,0,0,0,0,0,0,0,0,0,0,0,0,0,0,0,0,0,0,0,0,0,0,0,0,0,0,0,0,0,0,0,0,0,0,0,0,0,0,0,0,0,0,0,0,0,0,0,0,0,0,0,0,0,0,0,0,0,0,0,0,0,0,0,0,0,0],"sum_hessian":[2.7E2,4.4E1,2.26E2,3.5E1,9E0,1.4E1,2.12E2,1.6E1,1.9E1,4E0,5E0,1E1,4E0,4.3E1,1.69E2,1.3E1,3E0,1.1E1,8E0,1E0,3E0,2E0,3E0,7E0,3E0,2E0,2E0,3.7E1,6E0,2.6E1,1.43E2,2E0,1.1E1,1E1,1E0,1E0,7E0,1E0,1E0,3E0,4E0,5E0,3.2E1,4E0,2E0,1.9E1,7E0,2E0,1.41E2,7E0,4E0,1E0,9E0,4E0,3E0,1E0,3E0,3E0,2E0,8E0,2.4E1,2E0,1.7E1,6E0,1E0,1E1,1.31E2],"tree_param":{"num_deleted":"0","num_feature":"8","num_nodes":"67","size_leaf_vector":"1"}},{"base_weights":[-2.1261675E1,2.861134E2,-4.3574844E3,5.2571342E1,3.5717983E3,-9.992616E3,-7.072005E2,6.0270154E2,-4.001807E3,-4.0825557E3,-6.3523956E2,-2.1911687E3,4.4750938E3,2.911023E2,1.4005568E4,-1.392428E4,2.47564E3,6.159516E2,-9.018094E2,-1.9811626E3,-9.671042E2,3.334547E2,1.6803375E3,8.734877E2,-6.196019E3,3.3820834E2,6.9013223E3,9.2248956E2,-1.6985883E4,4.031066E3,-3.828305E3,2.1716812E3,-1.1737407E3,-5.440414E1,1.7554386E3,-4.3654844E3,5.8308563E2,-4.196719E2,5.7186566E2,-1.01960626E3,1.4347266E3,-5.6634775E3,6.8250003E0,-1.6644626E3,1.6725715E3,9.8078674E2,-3.328125E2],"categories":[],"categories_nodes":[],"categories_segments":[],"categories_sizes":[],"default_left":[0,0,0,0,0,0,0,0,0,0,0,0,0,0,0,0,0,0,0,0,0,0,0,0,0,0,0,0,0,0,0,0,0,0,0,0,0,0,0,0,0,0,0,0,0,0,0],"id":26,"left_children":[1,3,5,7,-1,9,11,13,15,-1,17,19,21,23,25,27,29,-1,-1,-1,31,-1,-1,33,35,37,-1,39,41,43,-1,45,-1,-1,-1,-1,-1,-1,-1,-1,-1,-1,-1,-1,-1,-1,-1],"loss_changes":[3.6244822E8,6.8866176E8,3.6319014E8,5.6002086E8,0E0,2.2820294E8,1.0209001E8,9.1889043E8,1.9626401E9,0E0,2.5292888E7,4.762774E7,5.136744E6,8.2523923E8,6.071714E8,5.6112845E8,5.0173088E8,0E0,0E0,0E0,9.170043E7,0E0,0E0,1.0512492E9,1.2524902E9,1.0838063E7,0E0,6.629231E7,3.2229683E8,2.971895E8,0E0,2.1633432E7,0E0,0E0,0E0,0E0,0E0,0E0,0E0,0E0,0E0,0E0,0E0,0E0,0E0,0E0,0E0],"parents":[2147483647,0,0,1,1,2,2,3,3,5,5,6,6,7,7,8,8,10,10,11,11,12,12,13,13,14,14,15,15,16,16,20,20,23,23,24,24,25,25,27,27,28,28,29,29,31,31],"right_children":[2,4,6,8,-1,10,12,14,16,-1,18,20,22,24,26,28,30,-1,-1,-1,32,-1,-1,34,36,38,-1,40,42,44,-1,46,-1,-1,-1,-1,-1,-1,-1,-1,-1,-1,-1,-1,-1,-1,-1],"split_conditions":[3.25E2,3.11E2,1.58E2,3.1E2,3.5717983E3,1.99E2,1.85E2,2.91E2,1.34E2,-4.0825557E3,5.25E2,3.91E2,7.82E2,1.85E3,8.45E2,8.2E1,2.64E2,6.159516E2,-9.018094E2,-1.9811626E3,1.156E3,3.334547E2,1.6803375E3,1.391E3,2.055E3,7.39E2,6.9013223E3,9.15E2,4.05E2,2E1,-3.828305E3,2.93E2,-1.1737407E3,-5.440414E1,1.7554386E3,-4.3654844E3,5.8308563E2,-4.196719E2,5.7186566E2,-1.01960626E3,1.4347266E3,-5.6634775E3,6.8250003E0,-1.6644626E3,1.6725715E3,9.8078674E2,-3.328125E2],"split_indices":[3,3,1,2,0,5,4,2,1,0,0,0,0,7,0,5,3,0,0,0,0,0,0,7,7,0,0,0,2,6,0,2,0,0,0,0,0,0,0,0,0,0,0,0,0,0,0],"split_type":[0,0,0,0,0,0,0,0,0,0,0,0,0,0,0,0,0,0,0,0,0,0,0,0,0,0,0,0,0,0,0,0,0,0,0,0,0,0,0,0,0,0,0,0,0,0,0],"sum_hessian":[2.7E2,2.53E2,1.7E1,2.49E2,4E0,6E0,1.1E1,2.2E2,2.9E1,4E0,2E0,9E0,2E0,2.16E2,4E0,1.1E1,1.8E1,1E0,1E0,1E0,8E0,1E0,1E0,1.99E2,1.7E1,2E0,2E0,2E0,9E0,1.7E1,1E0,4E0,4E0,1.65E2,3.4E1,8E0,9E0,1E0,1E0,1E0,1E0,8E0,1E0,2E0,1.5E1,3E0,1E0],"tree_param":{"num_deleted":"0","num_feature":"8","num_nodes":"47","size_leaf_vector":"1"}},{"base_weights":[-3.473862E1,-2.4758306E3,4.493313E2,6.1091583E2,-1.3340534E4,1.0117341E4,-2.3362395E2,-4.172012E3,4.2259604E3,-2.3779355E4,-2.4180938E3,1.9123055E4,-1.1718697E4,-3.8181318E3,1.2300149E3,-2.0801077E3,-1.25435625E4,1.4539323E4,9.432678E1,-3.7354688E2,-8.730485E3,5.6101044E2,-1.2143696E3,7.502871E3,1.1274797E4,-4.4248594E3,-1.4344891E3,-6.645438E3,6.3209937E2,2.2391406E4,2.0700288E2,-6.186099E3,1.7726484E3,-4.5005627E2,-5.194547E3,-1.5114583E2,6.5767036E3,-7.107058E3,4.0137798E3,-1.0628907E2,3.5874377E2,1.2691719E4,1.8512188E3,-1.9920988E3,-1.4480299E4,5.0448228E3,-4.5687524E3,5.319586E3,3.3865375E4,1.214187E4,-3.0233188E2,-2.0442849E3,-3.6255002E2,-2.7976877E2,1.4133E3,-1.8585469E2,1.17839066E2,-1.1751193E3,-2.6974094E3,2.7401746E3,-1.1871497E3,4.469544E3,9.1071564E2,-4.446422E2,9.1652814E2,-1.5442524E3,2.6573845E3,-1.2235118E2,-5.037517E3,2.10604E3,-1.3614078E3,9.626094E1,-2.4321538E3,2.2374407E3,-1.6440938E2,1.15695625E4,2.9648813E3,6.151844E3,8.499586E2,-3.0828557E3,1.3666606E2],"categories":[],"categories_nodes":[],"categories_segments":[],"categories_sizes":[],"default_left":[0,0,0,0,0,0,0,0,0,0,0,0,0,0,0,0,0,0,0,0,0,0,0,0,0,0,0,0,0,0,0,0,0,0,0,0,0,0,0,0,0,0,0,0,0,0,0,0,0,0,0,0,0,0,0,0,0,0,0,0,0,0,0,0,0,0,0,0,0,0,0,0,0,0,0,0,0,0,0,0,0],"id":27,"left_children":[1,3,5,7,9,11,13,15,17,19,21,23,25,27,29,31,33,35,37,-1,-1,39,-1,41,-1,-1,-1,43,45,47,49,51,53,-1,-1,55,-1,57,59,-1,-1,61,63,65,67,69,71,73,75,77,79,-1,-1,-1,-1,-1,-1,-1,-1,-1,-1,-1,-1,-1,-1,-1,-1,-1,-1,-1,-1,-1,-1,-1,-1,-1,-1,-1,-1,-1,-1],"loss_changes":[3.2134208E8,1.5172961E9,1.5012032E9,6.4008864E8,1.0826737E9,3.1738337E9,1.1221848E9,2.5410778E8,8.934603E8,5.6342835E8,3.1403064E7,2.0775657E9,3.459872E7,7.84295E8,3.2859151E9,2.3243718E8,1.3210749E8,6.540736E8,4.8013398E8,0E0,0E0,2.1667895E6,0E0,2.1110934E8,0E0,0E0,0E0,1.3565679E9,5.9679654E8,1.191021E9,8.911819E8,1.3652864E7,6.798419E7,0E0,0E0,1.0076428E6,0E0,8.45792E5,4.8507994E8,0E0,0E0,4.0006336E7,2.4592818E7,9.015047E8,4.485358E8,2.9686496E8,2.1022018E8,5.428004E7,6.971648E7,4.0906413E8,1.0705057E9,0E0,0E0,0E0,0E0,0E0,0E0,0E0,0E0,0E0,0E0,0E0,0E0,0E0,0E0,0E0,0E0,0E0,0E0,0E0,0E0,0E0,0E0,0E0,0E0,0E0,0E0,0E0,0E0,0E0,0E0],"parents":[2147483647,0,0,1,1,2,2,3,3,4,4,5,5,6,6,7,7,8,8,9,9,10,10,11,11,12,12,13,13,14,14,15,15,16,16,17,17,18,18,21,21,23,23,27,27,28,28,29,29,30,30,31,31,32,32,35,35,37,37,38,38,41,41,42,42,43,43,44,44,45,45,46,46,47,47,48,48,49,49,50,50],"right_children":[2,4,6,8,10,12,14,16,18,20,22,24,26,28,30,32,34,36,38,-1,-1,40,-1,42,-1,-1,-1,44,46,48,50,52,54,-1,-1,56,-1,58,60,-1,-1,62,64,66,68,70,72,74,76,78,80,-1,-1,-1,-1,-1,-1,-1,-1,-1,-1,-1,-1,-1,-1,-1,-1,-1,-1,-1,-1,-1,-1,-1,-1,-1,-1,-1,-1,-1,-1],"split_conditions":[1.5E1,1.3E1,2.2E1,6E0,8.5E1,8.4E1,9.3E1,1.5E1,8E0,5E1,4E0,2.28E2,2.89E2,1.08E2,7.87E2,3E0,3.2E1,1.1E1,6E0,-3.7354688E2,-8.730485E3,2.62E2,-1.2143696E3,1.08E2,1.1274797E4,-4.4248594E3,-1.4344891E3,6.52E2,1.22E2,7.66E2,9.8E1,8E0,8.1E1,-4.5005627E2,-5.194547E3,1E2,6.5767036E3,1.9E1,3.2E1,-1.0628907E2,3.5874377E2,3E0,1E1,8E0,1.7E1,7.03E2,1.4E1,6.6E1,1.14E2,1.39E2,1.06E2,-2.0442849E3,-3.6255002E2,-2.7976877E2,1.4133E3,-1.8585469E2,1.17839066E2,-1.1751193E3,-2.6974094E3,2.7401746E3,-1.1871497E3,4.469544E3,9.1071564E2,-4.446422E2,9.1652814E2,-1.5442524E3,2.6573845E3,-1.2235118E2,-5.037517E3,2.10604E3,-1.3614078E3,9.626094E1,-2.4321538E3,2.2374407E3,-1.6440938E2,1.15695625E4,2.9648813E3,6.151844E3,8.499586E2,-3.0828557E3,1.3666606E2],"split_indices":[4,4,5,5,2,2,2,3,5,0,6,0,0,5,7,3,0,1,4,0,0,0,0,0,0,0,0,7,1,7,2,1,0,0,0,0,0,1,3,0,0,6,5,6,4,0,6,1,3,3,2,0,0,0,0,0,0,0,0,0,0,0,0,0,0,0,0,0,0,0,0,0,0,0,0,0,0,0,0,0,0],"split_type":[0,0,0,0,0,0,0,0,0,0,0,0,0,0,0,0,0,0,0,0,0,0,0,0,0,0,0,0,0,0,0,0,0,0,0,0,0,0,0,0,0,0,0,0,0,0,0,0,0,0,0,0,0,0,0,0,0,0,0,0,0,0,0,0,0,0,0,0,0,0,0,0,0,0,0,0,0,0,0,0,0],"sum_hessian":[2.7E2,4.4E1,2.26E2,3.5E1,9E0,1.4E1,2.12E2,1.5E1,2E1,4E0,5E0,1E1,4E0,6.1E1,1.51E2,1.3E1,2E0,5E0,1.5E1,1E0,3E0,2E0,3E0,7E0,3E0,2E0,2E0,3.7E1,2.4E1,6E0,1.45E2,6E0,7E0,1E0,1E0,2E0,3E0,5E0,1E1,1E0,1E0,3E0,4E0,2.4E1,1.3E1,1.3E1,1.1E1,3E0,3E0,5E0,1.4E2,5E0,1E0,4E0,3E0,1E0,1E0,3E0,2E0,6E0,4E0,2E0,1E0,1E0,3E0,1.9E1,5E0,2E0,1.1E1,1.1E1,2E0,5E0,6E0,2E0,1E0,2E0,1E0,2E0,3E0,9E0,1.31E2],"tree_param":{"num_deleted":"0","num_feature":"8","num_nodes":"81","size_leaf_vector":"1"}},{"base_weights":[2.5492937E1,3.570012E2,-2.9835815E3,-2.0760785E2,3.8670044E3,-1.2352152E4,1.6111932E3,6.6709515E2,-5.979481E3,1.0495342E4,-2.2551295E2,-1.7373338E4,-1.7323359E3,-5.1833105E3,6.006596E3,-6.6099495E1,9.627266E3,-9.098488E3,4.6773257E3,1.30309375E4,1.5325156E3,3.7935935E3,-3.8909011E3,-4.615594E2,-6.0697783E3,1.1173876E3,-4.7928647E3,5.9158335E3,-9.868997E3,1.1116009E4,-9.554844E2,7.613586E2,-9.4589375E3,2.2047957E4,2.4541938E3,-5.2727295E3,-4.8210254E3,2.2393313E3,-1.5269688E3,8.6564064E1,1.4414698E4,-7.937063E2,1.1421438E3,-3.1081309E3,1.0063052E4,-4.896338E3,-1.2771421E3,-3.0338907E2,-1.8534E3,2.103994E3,5.581313E2,-4.0740413E3,-1.6311459E3,3.9165134E3,1.2536843E3,3.8969064E2,-1.6661687E3,-4.8564853E2,9.5764984E2,1.3765062E3,-3.654755E3,2.4593439E2,8.1450166E3,1.9215692E3,-2.6699907E3,8.628082E2,-3.3381543E3,-1.1165626E2,-5.7547974E2,5.1687686E3,1.9767681E3,-1.3334698E3,-8.691875E1,7.261172E2,3.332252E3,-1.2994797E3,5.970516E2,-1.2638907E2,-6.076266E2,-6.565547E2,6.3482815E1],"categories":[],"categories_nodes":[],"categories_segments":[],"categories_sizes":[],"default_left":[0,0,0,0,0,0,0,0,0,0,0,0,0,0,0,0,0,0,0,0,0,0,0,0,0,0,0,0,0,0,0,0,0,0,0,0,0,0,0,0,0,0,0,0,0,0,0,0,0,0,0,0,0,0,0,0,0,0,0,0,0,0,0,0,0,0,0,0,0,0,0,0,0,0,0,0,0,0,0,0,0],"id":28,"left_children":[1,3,5,7,9,11,13,15,17,19,21,23,25,27,29,31,33,35,37,39,41,43,45,-1,-1,-1,47,49,51,53,55,57,59,61,63,-1,65,-1,67,-1,69,-1,-1,71,73,-1,75,-1,-1,-1,-1,-1,77,-1,-1,-1,79,-1,-1,-1,-1,-1,-1,-1,-1,-1,-1,-1,-1,-1,-1,-1,-1,-1,-1,-1,-1,-1,-1,-1,-1],"loss_changes":[2.7139658E8,4.8633878E8,1.1821565E9,1.074308E9,9.246707E8,4.4982016E8,5.985611E8,1.216003E9,9.732391E8,2.754693E8,3.3885536E8,2.4052608E8,8.465636E7,4.7444022E8,4.3748685E8,1.3440165E9,1.193213E9,7.1301414E8,1.3244238E8,1.7216486E8,4.8087984E7,5.072481E8,3.690309E8,0E0,0E0,0E0,9.46616E6,3.04304E5,1.6127968E8,3.960211E7,1.177753E7,9.251059E8,5.915223E8,5.1928397E8,5.056135E8,0E0,8.08623E8,0E0,6.416325E5,0E0,8.469798E7,0E0,0E0,2.1317488E7,2.1009984E7,0E0,1.1839921E8,0E0,0E0,0E0,0E0,0E0,5.7774E5,0E0,0E0,0E0,5.367368E6,0E0,0E0,0E0,0E0,0E0,0E0,0E0,0E0,0E0,0E0,0E0,0E0,0E0,0E0,0E0,0E0,0E0,0E0,0E0,0E0,0E0,0E0,0E0,0E0],"parents":[2147483647,0,0,1,1,2,2,3,3,4,4,5,5,6,6,7,7,8,8,9,9,10,10,11,11,12,12,13,13,14,14,15,15,16,16,17,17,18,18,19,19,20,20,21,21,22,22,26,26,27,27,28,28,29,29,30,30,31,31,32,32,33,33,34,34,36,36,38,38,40,40,43,43,44,44,46,46,52,52,56,56],"right_children":[2,4,6,8,10,12,14,16,18,20,22,24,26,28,30,32,34,36,38,40,42,44,46,-1,-1,-1,48,50,52,54,56,58,60,62,64,-1,66,-1,68,-1,70,-1,-1,72,74,-1,76,-1,-1,-1,-1,-1,78,-1,-1,-1,80,-1,-1,-1,-1,-1,-1,-1,-1,-1,-1,-1,-1,-1,-1,-1,-1,-1,-1,-1,-1,-1,-1,-1,-1],"split_conditions":[3.1E1,1.038E3,3.5E1,2.18E2,1.167E3,1.04E2,1.7E2,1.77E2,2.1E1,3.1E2,1.27E2,8.8E1,7.27E2,1.04E2,2.825E3,7.42E2,1.84E2,1.333E3,1.18E2,1.6E2,1.08E3,8.4E1,1.25E2,-4.615594E2,-6.0697783E3,1.1173876E3,9.61E2,7.95E2,1.34E2,4.5E1,1.156E3,3.4E1,9E0,3.53E2,1.53E2,-5.2727295E3,1.501E3,2.2393313E3,8.74E2,8.6564064E1,1.53E2,-7.937063E2,1.1421438E3,1.877E3,9.8E1,-4.896338E3,2.2E1,-3.0338907E2,-1.8534E3,2.103994E3,5.581313E2,-4.0740413E3,1.017E3,3.9165134E3,1.2536843E3,3.8969064E2,2.059E3,-4.8564853E2,9.5764984E2,1.3765062E3,-3.654755E3,2.4593439E2,8.1450166E3,1.9215692E3,-2.6699907E3,8.628082E2,-3.3381543E3,-1.1165626E2,-5.7547974E2,5.1687686E3,1.9767681E3,-1.3334698E3,-8.691875E1,7.261172E2,3.332252E3,-1.2994797E3,5.970516E2,-1.2638907E2,-6.076266E2,-6.565547E2,6.3482815E1],"split_indices":[6,0,6,2,0,4,1,2,6,2,5,1,0,1,7,0,2,7,5,2,0,3,1,0,0,0,0,0,1,6,0,4,6,0,3,0,7,0,0,0,3,0,0,7,3,0,6,0,0,0,0,0,0,0,0,0,0,0,0,0,0,0,0,0,0,0,0,0,0,0,0,0,0,0,0,0,0,0,0,0,0],"split_type":[0,0,0,0,0,0,0,0,0,0,0,0,0,0,0,0,0,0,0,0,0,0,0,0,0,0,0,0,0,0,0,0,0,0,0,0,0,0,0,0,0,0,0,0,0,0,0,0,0,0,0,0,0,0,0,0,0,0,0,0,0,0,0,0,0,0,0,0,0,0,0,0,0,0,0,0,0,0,0,0,0],"sum_hessian":[2.7E2,2.44E2,2.6E1,2.11E2,3.3E1,8E0,1.8E1,1.84E2,2.7E1,1.2E1,2.1E1,5E0,3E0,7E0,1.1E1,1.71E2,1.3E1,2.1E1,6E0,9E0,3E0,1E1,1.1E1,1E0,4E0,1E0,2E0,2E0,5E0,6E0,5E0,1.58E2,1.3E1,4E0,9E0,6E0,1.5E1,4E0,2E0,1E0,8E0,1E0,2E0,5E0,5E0,1E0,1E1,1E0,1E0,1E0,1E0,3E0,2E0,4E0,2E0,1E0,4E0,8E1,7.8E1,2E0,1.1E1,1E0,3E0,7E0,2E0,7E0,8E0,1E0,1E0,5E0,3E0,3E0,2E0,1E0,4E0,5E0,5E0,1E0,1E0,3E0,1E0],"tree_param":{"num_deleted":"0","num_feature":"8","num_nodes":"81","size_leaf_vector":"1"}},{"base_weights":[1.6035978E1,1.7955664E3,-5.541827E2,-7.532971E1,1.53689795E4,-4.431497E3,6.198128E2,-1.575277E3,5.930737E3,-1.4450026E3,2.1214475E4,1.79611E3,-6.795926E3,4.928603E3,-5.477958E2,1.5004858E3,-7.272285E3,-3.5652812E3,9.492219E3,3.2149573E2,-9.717469E2,2.5826926E4,-2.771672E2,4.407598E3,-3.7860884E3,-1.4965508E4,-2.4279714E3,-1.2721135E3,1.1983916E4,-9.590592E3,4.8820544E2,3.1762952E3,-8.1841436E3,-1.4720781E4,-1.871216E3,-2.8548752E2,-1.2357875E3,2.0475156E3,1.2873317E4,9.354869E3,3.558594E3,-5.1516055E3,7.4413496E3,-1.3589746E3,-1.21617195E2,-2.9221313E3,-2.062193E4,3.4592551E3,-4.1593076E3,-3.4751953E3,7.858242E3,2.3394646E4,-2.3511445E3,-1.1862916E3,-1.1010801E4,9.507714E3,-1.0091276E2,6.0122864E2,5.2238535E3,5.4084377E1,-3.0960962E3,-5.494453E2,-4.969125E3,1.8203531E3,-1.6820532E3,-1.21870316E2,9.002532E2,4.9825923E3,1.0805344E3,-4.4393265E2,-1.8742899E3,3.1089094E3,5.786731E2,-1.4564977E3,7.213969E2,-7.2532285E3,6.399844E2,-4.5087894E2,1.4256836E3,-2.5367158E3,-2.8452737E2,2.0331656E3,-1.9087385E3,3.429475E3,-4.292672E2,4.0530564E3,1.1598051E4,-2.7754548E3,1.0918145E3,-1.0724156E3,5.385844E2,-6.623906E2,-3.816497E3,-1.4452032E2,3.3758735E3,-7.102117E2,4.8565115E2],"categories":[],"categories_nodes":[],"categories_segments":[],"categories_sizes":[],"default_left":[0,0,0,0,0,0,0,0,0,0,0,0,0,0,0,0,0,0,0,0,0,0,0,0,0,0,0,0,0,0,0,0,0,0,0,0,0,0,0,0,0,0,0,0,0,0,0,0,0,0,0,0,0,0,0,0,0,0,0,0,0,0,0,0,0,0,0,0,0,0,0,0,0,0,0,0,0,0,0,0,0,0,0,0,0,0,0,0,0,0,0,0,0,0,0,0,0],"id":29,"left_children":[1,3,5,7,9,11,13,15,17,19,21,23,25,27,29,31,33,35,37,-1,-1,39,-1,41,43,45,47,49,51,53,55,57,59,61,63,-1,-1,65,67,-1,-1,69,71,-1,-1,73,75,77,79,81,83,85,87,89,91,93,95,-1,-1,-1,-1,-1,-1,-1,-1,-1,-1,-1,-1,-1,-1,-1,-1,-1,-1,-1,-1,-1,-1,-1,-1,-1,-1,-1,-1,-1,-1,-1,-1,-1,-1,-1,-1,-1,-1,-1,-1],"loss_changes":[2.7598458E8,1.6771913E9,9.4044826E8,5.408608E8,8.1694336E8,7.189935E8,8.026258E8,8.51999E8,4.3968115E8,1.7017046E7,6.3653376E8,2.2077738E8,1.2126167E9,1.5026766E9,1.185094E9,5.453423E8,6.563616E8,1.871952E6,2.0018323E8,0E0,0E0,4.088576E6,0E0,3.2833738E8,1.073688E7,7.572091E8,2.5901454E8,4.094924E8,2.6721802E9,1.421042E8,6.067049E8,4.3236918E8,9.119997E7,1.3594573E8,3.6025254E8,0E0,0E0,1.0575961E7,1.4797242E8,0E0,0E0,2.828192E6,1.0885539E8,0E0,0E0,6.315429E7,6.9882624E8,4.5639656E7,2.540906E8,5.1674294E8,1.4913029E8,8.357161E8,3.643646E8,2.7781434E7,1.3757504E8,1.2745581E8,4.2478864E8,0E0,0E0,0E0,0E0,0E0,0E0,0E0,0E0,0E0,0E0,0E0,0E0,0E0,0E0,0E0,0E0,0E0,0E0,0E0,0E0,0E0,0E0,0E0,0E0,0E0,0E0,0E0,0E0,0E0,0E0,0E0,0E0,0E0,0E0,0E0,0E0,0E0,0E0,0E0,0E0],"parents":[2147483647,0,0,1,1,2,2,3,3,4,4,5,5,6,6,7,7,8,8,9,9,10,10,11,11,12,12,13,13,14,14,15,15,16,16,17,17,18,18,21,21,23,23,24,24,25,25,26,26,27,27,28,28,29,29,30,30,31,31,32,32,33,33,34,34,37,37,38,38,41,41,42,42,45,45,46,46,47,47,48,48,49,49,50,50,51,51,52,52,53,53,54,54,55,55,56,56],"right_children":[2,4,6,8,10,12,14,16,18,20,22,24,26,28,30,32,34,36,38,-1,-1,40,-1,42,44,46,48,50,52,54,56,58,60,62,64,-1,-1,66,68,-1,-1,70,72,-1,-1,74,76,78,80,82,84,86,88,90,92,94,96,-1,-1,-1,-1,-1,-1,-1,-1,-1,-1,-1,-1,-1,-1,-1,-1,-1,-1,-1,-1,-1,-1,-1,-1,-1,-1,-1,-1,-1,-1,-1,-1,-1,-1,-1,-1,-1,-1,-1,-1],"split_conditions":[2.56E2,2.41E2,9.3E1,1.17E2,4.5E1,5.6E1,5.23E2,3.15E2,1.96E2,2.5E2,7.8E1,7E0,7.6E1,8.7E1,6.28E2,7E0,4.03E2,5.9E1,5E0,3.2149573E2,-9.717469E2,2.49E2,-2.771672E2,1E0,4.3E1,6.14E2,1.27E2,8.7E1,2.01E2,5.59E2,1.117E3,7.3E1,5.1E1,8E0,2.1E1,-2.8548752E2,-1.2357875E3,2.03E2,2.25E2,9.354869E3,3.558594E3,4.65E2,6.28E2,-1.3589746E3,-1.21617195E2,6.7E1,4.57E2,3.8E1,1.26E2,4E0,5.12E2,1.4E1,1.06E2,5.49E2,6.9E1,6.35E2,6.5E1,6.0122864E2,5.2238535E3,5.4084377E1,-3.0960962E3,-5.494453E2,-4.969125E3,1.8203531E3,-1.6820532E3,-1.21870316E2,9.002532E2,4.9825923E3,1.0805344E3,-4.4393265E2,-1.8742899E3,3.1089094E3,5.786731E2,-1.4564977E3,7.213969E2,-7.2532285E3,6.399844E2,-4.5087894E2,1.4256836E3,-2.5367158E3,-2.8452737E2,2.0331656E3,-1.9087385E3,3.429475E3,-4.292672E2,4.0530564E3,1.1598051E4,-2.7754548E3,1.0918145E3,-1.0724156E3,5.385844E2,-6.623906E2,-3.816497E3,-1.4452032E2,3.3758735E3,-7.102117E2,4.8565115E2],"split_indices":[0,0,2,3,1,1,0,7,0,0,2,6,5,1,0,6,7,1,6,0,0,0,0,3,1,7,3,5,3,0,7,2,0,3,5,0,0,0,0,0,0,0,7,0,0,2,0,3,5,6,0,6,2,0,1,0,4,0,0,0,0,0,0,0,0,0,0,0,0,0,0,0,0,0,0,0,0,0,0,0,0,0,0,0,0,0,0,0,0,0,0,0,0,0,0,0,0],"split_type":[0,0,0,0,0,0,0,0,0,0,0,0,0,0,0,0,0,0,0,0,0,0,0,0,0,0,0,0,0,0,0,0,0,0,0,0,0,0,0,0,0,0,0,0,0,0,0,0,0,0,0,0,0,0,0,0,0,0,0,0,0,0,0,0,0,0,0,0,0,0,0,0,0,0,0,0,0,0,0,0,0,0,0,0,0,0,0,0,0,0,0,0,0,0,0,0,0],"sum_hessian":[2.7E2,6.5E1,2.05E2,5.8E1,7E0,4.7E1,1.58E2,4.7E1,1.1E1,2E0,5E0,1.3E1,3.4E1,3.3E1,1.25E2,3.1E1,1.6E1,3E0,8E0,1E0,1E0,4E0,1E0,9E0,4E0,1.1E1,2.3E1,1.8E1,1.5E1,1.2E1,1.13E2,2.7E1,4E0,6E0,1E1,1E0,2E0,3E0,5E0,2E0,2E0,2E0,7E0,3E0,1E0,4E0,7E0,5E0,1.8E1,1.5E1,3E0,8E0,7E0,2E0,1E1,6E0,1.07E2,2.6E1,1E0,1E0,3E0,1E0,5E0,3E0,7E0,1E0,2E0,3E0,2E0,1E0,1E0,4E0,3E0,3E0,1E0,6E0,1E0,1E0,4E0,7E0,1.1E1,3E0,1.2E1,2E0,1E0,6E0,2E0,3E0,4E0,1E0,1E0,2E0,8E0,1E0,5E0,4.6E1,6.1E1],"tree_param":{"num_deleted":"0","num_feature":"8","num_nodes":"97","size_leaf_vector":"1"}},{"base_weights":[8.68317E1,4.238568E2,-2.274898E3,2.3060022E2,9.383494E3,-8.293883E3,9.643505E2,5.866875E2,-2.9096086E3,6.9771875E2,4.4824316E3,1.4998646E3,-1.0402619E4,5.4099956E3,-9.2293567E2,7.197891E2,-4.1046987E3,-1.26255625E4,-3.3513983E2,-5.7948755E2,8.93461E2,-2.799094E2,9.5484845E2,-1.1427277E4,-1.7710313E2,1.4845188E3,3.0447375E3,3.5664197E3,-3.6958948E3,-4.230902E2,2.3404473E3,-5.809619E3,-5.0316254E2,-7.1800522E3,2.4251677E3,-5.006078E3,-4.1410596E3,2.4068672E3,-3.3073126E2,1.4204962E3,4.3E2,-3.2226448E3,2.8921875E2,3.9195166E2,-1.0465575E3,-1.2317188E3,1.5465914E3,-3.8023938E3,-3.7922815E2,1.911497E3,-5.557266E1,-2.2677751E3,-4.9058127E2,1.0829344E3,-1.8028125E2,2.1238594E2,-1.8885939E1,8.381125E2,-3.0336877E2],"categories":[],"categories_nodes":[],"categories_segments":[],"categories_sizes":[],"default_left":[0,0,0,0,0,0,0,0,0,0,0,0,0,0,0,0,0,0,0,0,0,0,0,0,0,0,0,0,0,0,0,0,0,0,0,0,0,0,0,0,0,0,0,0,0,0,0,0,0,0,0,0,0,0,0,0,0,0,0],"id":30,"left_children":[1,3,5,7,9,11,13,15,17,19,-1,21,23,25,27,29,-1,31,33,-1,-1,-1,-1,35,-1,37,-1,39,41,43,45,-1,-1,47,49,51,-1,53,-1,-1,55,-1,57,-1,-1,-1,-1,-1,-1,-1,-1,-1,-1,-1,-1,-1,-1,-1,-1],"loss_changes":[2.1667E8,4.0993526E8,6.708959E8,2.6336314E8,2.309503E8,2.6343162E8,1.9796778E8,4.1058573E8,5.9609075E8,2.3741304E7,0E0,1.5253102E7,9.379635E7,1.1515682E8,2.2481072E8,3.899557E8,0E0,3.3647053E8,3.9529408E8,0E0,0E0,0E0,0E0,6.8224E7,0E0,1.4583797E7,0E0,2.3619784E7,3.1198816E8,6.620011E8,1.5997873E9,0E0,0E0,1.790128E8,1.557096E8,2.2063576E7,0E0,1.6641778E7,0E0,0E0,4.5562144E5,0E0,2.8880744E7,0E0,0E0,0E0,0E0,0E0,0E0,0E0,0E0,0E0,0E0,0E0,0E0,0E0,0E0,0E0,0E0],"parents":[2147483647,0,0,1,1,2,2,3,3,4,4,5,5,6,6,7,7,8,8,9,9,11,11,12,12,13,13,14,14,15,15,17,17,18,18,23,23,25,25,27,27,28,28,29,29,30,30,33,33,34,34,35,35,37,37,40,40,42,42],"right_children":[2,4,6,8,10,12,14,16,18,20,-1,22,24,26,28,30,-1,32,34,-1,-1,-1,-1,36,-1,38,-1,40,42,44,46,-1,-1,48,50,52,-1,54,-1,-1,56,-1,58,-1,-1,-1,-1,-1,-1,-1,-1,-1,-1,-1,-1,-1,-1,-1,-1],"split_conditions":[3.1E2,2.93E2,1.34E2,1.85E3,8.45E2,8.2E1,1.136E3,2.9E2,1.935E3,7.39E2,4.4824316E3,9.15E2,4.05E2,1.017E3,8.4E1,1.04E2,-4.1046987E3,1.074E3,1.42E2,-5.7948755E2,8.93461E2,-2.799094E2,9.5484845E2,1.11E2,-1.7710313E2,2.42E2,3.0447375E3,1.49E3,1.5E2,7.9E1,7.8E1,-5.809619E3,-5.0316254E2,1.65E2,2.13E2,8.6E1,-4.1410596E3,9.62E2,-3.3073126E2,1.4204962E3,1.559E3,-3.2226448E3,1.86E2,3.9195166E2,-1.0465575E3,-1.2317188E3,1.5465914E3,-3.8023938E3,-3.7922815E2,1.911497E3,-5.557266E1,-2.2677751E3,-4.9058127E2,1.0829344E3,-1.8028125E2,2.1238594E2,-1.8885939E1,8.381125E2,-3.0336877E2],"split_indices":[2,2,1,7,0,5,0,2,7,0,0,0,2,0,4,2,0,0,1,0,0,0,0,1,0,1,0,0,5,1,1,0,0,2,1,1,0,0,0,0,0,0,5,0,0,0,0,0,0,0,0,0,0,0,0,0,0,0,0],"split_type":[0,0,0,0,0,0,0,0,0,0,0,0,0,0,0,0,0,0,0,0,0,0,0,0,0,0,0,0,0,0,0,0,0,0,0,0,0,0,0,0,0,0,0,0,0,0,0,0,0,0,0,0,0,0,0,0,0,0,0],"sum_hessian":[2.7E2,2.37E2,3.3E1,2.33E2,4E0,1.1E1,2.2E1,2.1E2,2.3E1,2E0,2E0,2E0,9E0,6E0,1.6E1,2.09E2,1E0,4E0,1.9E1,1E0,1E0,1E0,1E0,8E0,1E0,4E0,2E0,6E0,1E1,1.23E2,8.6E1,2E0,2E0,5E0,1.4E1,3E0,5E0,3E0,1E0,4E0,2E0,3E0,7E0,7.9E1,4.4E1,2.6E1,6E1,2E0,3E0,5E0,9E0,1E0,2E0,2E0,1E0,1E0,1E0,2E0,5E0],"tree_param":{"num_deleted":"0","num_feature":"8","num_nodes":"59","size_leaf_vector":"1"}},{"base_weights":[1.5969911E1,2.9453438E3,-5.669548E1,-4.0522058E3,1.611794E2,-1.9774799E3,-1.1000375E4,2.2560146E3,-3.9412595E2,-4.491569E3,4.599509E2,-4.5868127E2,-4.491488E3,5.1841437E2,1.3848701E4,-5.770269E3,1.2547139E2,-1.8387258E3,-2.140539E3,-8.950969E2,1.5311615E3,-9.344362E2,4.954836E3,-8.84775E2,1.71399E4,-1.2277188E3,-1.0176406E4,1.2048523E4,-1.344073E2,-9.992016E2,2.1447891E2,2.3550001E1,8.8729694E2,9.105795E2,-1.5879907E3,-7.3521564E2,2.308697E3,6.1906987E3,-5.083594E1,-1.4322235E3,9.820369E2,-6.518222E3,-1.8049817E3,-2.44238E3,6.447663E3,-2.6707736E2,4.2128378E2],"categories":[],"categories_nodes":[],"categories_segments":[],"categories_sizes":[],"default_left":[0,0,0,0,0,0,0,0,0,0,0,0,0,0,0,0,0,0,0,0,0,0,0,0,0,0,0,0,0,0,0,0,0,0,0,0,0,0,0,0,0,0,0,0,0,0,0],"id":31,"left_children":[1,-1,3,5,7,9,11,13,15,17,19,-1,-1,21,23,25,27,-1,29,-1,31,33,35,-1,37,39,41,43,45,-1,-1,-1,-1,-1,-1,-1,-1,-1,-1,-1,-1,-1,-1,-1,-1,-1,-1],"loss_changes":[1.9357765E8,0E0,2.3569387E8,1.8006467E8,2.998504E8,7.560091E7,8.994963E7,1.0805673E9,5.705836E8,9.979568E6,3.0390258E7,0E0,0E0,3.1401197E8,4.3754778E8,3.477781E8,5.8104774E8,0E0,1.5974746E7,0E0,1.2201108E7,6.562922E8,2.624274E8,0E0,3.6655296E8,1.7525558E8,3.0172346E8,9.3763776E8,2.1524533E8,0E0,0E0,0E0,0E0,0E0,0E0,0E0,0E0,0E0,0E0,0E0,0E0,0E0,0E0,0E0,0E0,0E0,0E0],"parents":[2147483647,0,0,2,2,3,3,4,4,5,5,6,6,7,7,8,8,9,9,10,10,13,13,14,14,15,15,16,16,18,18,20,20,21,21,22,22,24,24,25,25,26,26,27,27,28,